8511 15
plot 0.17666867 -0.32167366 -0.57289755 -0.16404547 -1.5208716 1.2260531 1.2203804 0.42026642 -0.034944013 -1.117692 0.087656647 -0.15066572 -0.38873649 1.3847823 -0.12216275
data 0.2039995 -0.41908738 -0.54433125 -0.25884572 -1.4551716 1.1431526 1.0063316 0.4090161 0.047249112 -1.1441927 0.059798609 -0.32173741 -0.4820551 1.5193596 0.02184095
axis 0.32981443 -0.056819029 -0.64388388 -0.24026459 -1.419477 1.087468 1.3055395 0.44112861 -0.12593445 -1.1883684 -0.23742799 -0.40767407 -0.36066172 1.2992576 0.025868041
pandas 0.1593805 -0.25941467 -0.64535683 -0.26716828 -1.6256424 1.1855408 0.95044076 0.42115685 -0.010506354 -1.0239846 0.27629766 -0.018024011 -0.52497804 1.3777539 -0.091754481
graph 0.25414383 -0.37905046 -0.44276386 -0.36027655 -1.3347425 1.0995017 0.94473773 0.42924213 -0.0029666189 -1.0805999 0.10122021 -0.25631902 -0.42897329 1.431316 0.040917683
figure 0.13127241 -0.48725161 -0.35483846 -0.54522753 -1.2200726 1.1119536 0.7574265 0.56382889 -0.031405933 -1.1886865 -0.01547451 -0.42350531 -0.45502362 1.4243311 0.14538145
line 0.19788848 -0.33208781 -0.57590699 -0.1918011 -1.2711853 1.0414332 1.001732 0.30227646 0.05695622 -1.0549242 0.049976032 -0.27186894 -0.394577 1.3405993 0.066910028
error 0.14825353 -0.5828622 -0.36654875 -0.63267839 -1.4050456 1.2143928 0.96877581 0.53944737 0.081903405 -1.3055333 0.1110225 -0.63872665 -0.67129529 1.7992911 0.23242886
bar 0.48310667 -0.21853799 -0.65674263 -0.16336133 -1.3935318 0.91676885 0.91414839 -0.026991034 0.1152933 -0.89422208 0.081592999 -0.29670313 -0.29998609 1.3908021 0.043862596
color 0.10633551 -0.27966592 -0.49470875 -0.13869795 -1.3967745 1.1734897 0.95371234 0.49053508 0.089109287 -1.1107203 -0.051838264 -0.21650676 -0.49548993 1.4316788 -0.025244297
plots 0.23093817 -0.4859558 -0.36449018 -0.54165822 -1.2652596 1.0914477 0.8817358 0.43830675 0.059124615 -1.0899988 0.11087828 -0.37093085 -0.38689423 1.5472921 0.12128478
values 0.14434479 -0.31237939 -0.48109871 -0.19598942 -1.4270438 1.0798432 1.070318 0.50651461 0.041894574 -1.0954922 -0.016769748 -0.39057732 -0.49578419 1.4341631 -0.0043348377
labels 0.31806999 -0.08660122 -0.52872342 -0.20261328 -1.460749 1.1649992 1.1893417 0.4796274 -0.06972748 -1.212597 -0.14072034 -0.25849524 -0.32849631 1.2534555 0.1096041
scatter 0.087066047 -0.31687149 -0.57147557 -0.078156769 -1.0564023 1.0042454 0.99071735 0.35973328 0.0039248909 -0.99246818 -0.062263474 -0.17058741 -0.31371677 1.1357014 0.06492731
image 0.11512086 -0.57394731 -0.41427678 -0.41159239 -1.3180585 1.1956489 0.90834045 0.55389643 0.090033248 -1.1708968 -0.055830978 -0.4570111 -0.54388458 1.5780693 0.18271314
pyplot 0.11672012 -0.30842134 -0.41337657 -0.45516992 -1.2012557 1.1148028 0.86991817 0.50153643 0.010210036 -1.0742652 -0.019811699 -0.35499555 -0.42702642 1.3584526 0.077712946
x 0.32120341 -0.014759462 -0.49494672 -0.18959077 -1.363813 1.1557267 1.2993402 0.5529508 -0.085602567 -1.2393394 -0.26130304 -0.32454148 -0.32266921 1.2343922 0.030513672
points 0.0790627 -0.39293817 -0.45157677 -0.20289387 -1.2568617 1.0527489 0.98150218 0.39452514 0.050952975 -1.047902 0.030379757 -0.33310863 -0.40828687 1.30358 0.062256038
histogram 0.094940118 -0.30791903 -0.44064966 -0.31842715 -1.1617368 1.042235 0.85071856 0.42182106 -0.039479136 -0.99605334 0.0072538196 -0.3713879 -0.49863976 1.3581283 0.039351258
legend 0.08547876 -0.32630593 -0.45775384 -0.3101356 -1.308637 1.0505061 0.93541712 0.46268097 0.05138658 -1.0933819 0.0003848309 -0.28369036 -0.43015903 1.2430807 0.014552859
chart 0.40723807 -0.061186325 -0.38774285 -0.4208582 -1.4638867 1.044225 0.77958834 0.5552659 -0.25456139 -1.0696948 0.064203948 0.015983755 -0.38450789 1.4619489 -0.1343663
subplots 0.17067254 -0.37598628 -0.44680384 -0.36179665 -1.3168153 1.1391302 0.89595288 0.46140924 0.011061193 -1.1622487 -0.0087537589 -0.35449541 -0.42506176 1.3358818 0.044232275
axes 0.1398554 -0.33832437 -0.38512745 -0.4075357 -1.2504665 1.1206441 0.93382055 0.5247848 0.038531851 -1.1500036 -0.094325446 -0.37242645 -0.45276126 1.3764912 0.072291538
function 0.14899392 -0.4891353 -0.41870648 -0.45244268 -1.283764 1.128425 0.86182112 0.43773127 0.050833195 -1.1164382 0.0184057 -0.4606728 -0.51311392 1.5397776 0.11508524
array 0.025271261 -0.46033481 -0.46138886 -0.23153469 -1.2532513 1.0888823 0.91958565 0.41359252 0.087587625 -0.99174726 -0.042796735 -0.43977636 -0.46384564 1.408111 0.10585044
lines 0.14113799 -0.40424621 -0.47427765 -0.33207679 -1.1549145 1.0735056 0.90028334 0.42330575 0.029994223 -1.0869408 0.013183212 -0.31497487 -0.3750118 1.2882214 0.12189131
file 0.25930768 -0.55266839 -0.48225781 -0.46937853 -1.4882946 1.187326 1.02595 0.63899904 0.028944602 -1.1947644 0.10137714 -0.44216284 -0.68137032 1.6720172 0.080340028
size 0.13961598 -0.39164799 -0.36274067 -0.37199706 -1.2688266 1.0474144 0.91162008 0.50034004 0.030546924 -1.1384606 -0.061564263 -0.41082433 -0.45521283 1.2819289 0.068176784
colorbar 0.089080319 -0.29887733 -0.43725437 -0.33244413 -1.309646 1.1145627 0.99705416 0.42761704 0.05927676 -1.0736482 -0.11921532 -0.33969536 -0.41809502 1.2774619 0.060142983
time 0.179546 -0.28502876 -0.4450711 -0.54255664 -1.3957565 1.1883389 1.097452 0.4405506 -0.17068522 -1.0486258 0.21849211 -0.3404212 -0.22837976 1.5397313 -0.18619992
dataframe 0.42533201 -0.36059424 -0.57765371 -0.17802258 -1.4438738 0.73335648 0.98405153 0.35123667 -0.017185444 -0.98986387 0.13359663 -0.26461652 -0.43197894 1.284796 -0.21101478
text 0.15303987 -0.38751161 -0.44005251 -0.41610184 -1.3165195 1.1348619 0.84612411 0.451994 -0.026288062 -1.0342875 -0.037308943 -0.35548621 -0.45144692 1.3816056 0.13025993
basemap 0.093479216 -0.52643281 -0.50709355 -0.47876126 -1.3847163 1.3023994 0.95737749 0.55436099 0.10806607 -1.2438785 -0.021720281 -0.49138993 -0.62741834 1.7032872 0.16895652
value 0.16561566 -0.31005633 -0.42493469 -0.2352051 -1.2524537 1.0384803 0.93988484 0.37610805 0.0279052 -1.0524045 0.0035382824 -0.39767322 -0.48217353 1.3899635 0.013687938
animation 0.083576255 -0.51368088 -0.33092198 -0.46878085 -1.1615356 1.0941588 0.78642792 0.48515758 0.080499902 -1.0832224 0.072700076 -0.43548781 -0.4719004 1.4316944 0.16102622
seaborn 0.12463009 -0.4124414 -0.44816378 -0.38108832 -1.4729519 1.1619233 0.97078854 0.50100726 -0.0082170432 -1.2324517 0.028541779 -0.46710643 -0.48618215 1.5568939 0.13539949
colors 0.065198183 -0.29134452 -0.45392793 -0.20739229 -1.3489841 1.0638645 0.96417767 0.40262023 0.06828738 -1.1045007 -0.05019749 -0.26480159 -0.41997287 1.3463563 0.03067736
subplot 0.14768204 -0.30199257 -0.32560787 -0.34566519 -1.2334368 1.0679181 0.86116391 0.51232618 -0.009720535 -1.0460962 -0.093551941 -0.36161789 -0.41688523 1.2971532 0.068589754
label 0.13547568 -0.20387851 -0.48614267 -0.21687774 -1.3242916 1.0827743 0.9683305 0.4217338 -0.031346638 -1.0665551 -0.12804642 -0.33730549 -0.36323714 1.1784859 0.029909493
ticks 0.17816018 -0.21717714 -0.50463992 -0.22332391 -1.2421775 1.0359445 1.0863183 0.4849557 0.011146684 -1.0937246 -0.12713349 -0.32721889 -0.37887076 1.205039 0.013276065
contour 0.10711141 -0.3457647 -0.43667248 -0.2256477 -1.0729587 1.026015 0.84897918 0.38012162 0.014663243 -0.97657156 -0.064553715 -0.35296398 -0.35303706 1.2177079 0.066756524
ipython 0.37134448 -1.1028298 -0.4360058 -1.8043647 -0.74057806 0.90782475 0.12993506 0.71262342 -0.17483164 -1.2619983 0.71774215 -0.45711383 -0.33871606 2.1544642 0.53545874
notebook 0.95833457 -1.6300774 0.24327229 -1.486917 -1.1464126 0.67698139 1.6899322 -0.14898922 0.53062874 -0.72927892 1.0154755 -0.57028693 -0.11659545 2.3878357 1.0983067
loop 0.18619199 -0.45414051 -0.30945691 -0.45668903 -1.083859 0.97226208 0.77847815 0.48589557 0.067444704 -0.97355384 0.059939723 -0.40788081 -0.42309487 1.2864147 0.13950562
imshow 0.10632635 -0.43198273 -0.41576031 -0.34746486 -1.1626004 1.0337999 0.81965679 0.44562203 0.021912549 -1.0622356 -0.087777428 -0.37830871 -0.42741454 1.280892 0.10392845
change 0.14443363 -0.29870421 -0.46833822 -0.2765277 -1.2809334 1.0419707 0.9077822 0.42225569 0.03044329 -1.1152916 -0.087232247 -0.36697915 -0.41181764 1.3187927 0.0095845442
point 0.13441658 -0.38264367 -0.47095129 -0.25492674 -1.2600034 1.0839019 0.9459002 0.45627484 0.063599192 -1.037312 0.0058919014 -0.31326503 -0.47490457 1.2920505 0.10546889
list 0.11684413 -0.36302888 -0.39306566 -0.2657516 -1.2520758 1.0132877 0.87431544 0.4165872 0.049212418 -1.0546881 0.03462065 -0.36347795 -0.49908292 1.3304076 0.090990901
object -0.02963496 -0.74981761 -0.40047994 -0.50737119 -1.5915575 1.5008073 0.97600263 0.77018058 0.093652762 -1.3767724 0.050537731 -0.56018525 -0.84345007 1.9890655 0.013771781
series 0.39664879 -0.14048782 -0.63036925 -0.16581976 -1.2469248 0.78824478 0.83774811 0.24042733 -0.19349021 -0.99907374 0.15834276 -0.3600018 -0.42438331 1.4421966 0.0064611444
tick 0.34153637 0.037772797 -0.58805448 -0.46596882 -1.3943491 1.0807246 1.2589264 0.26169813 -0.19075683 -1.1968592 -0.31038162 -0.43969384 -0.21370964 0.96749085 0.1120351
map -0.063432075 -0.59109515 -0.50498378 -0.35625371 -1.3217497 1.1188536 0.90370417 0.58863515 -0.022392746 -1.0566462 0.043203328 -0.51246804 -0.52832961 1.4253402 0.12028691
tkinter 0.18788894 -0.51458049 -0.29372713 -0.56849098 -1.0729185 1.0021609 0.67181998 0.49115983 -0.0016554191 -1.0685308 0.12289174 -0.55025637 -0.48421782 1.4867157 0.090074591
colormap 0.052352931 -0.3679435 -0.39077085 -0.28717625 -1.2454679 1.0812132 0.90970778 0.46889633 0.037547112 -1.0123521 -0.058473345 -0.35104272 -0.45421168 1.3499097 0.051923834
window 0.17216691 -0.46619678 -0.2513586 -0.59409207 -1.172981 1.0521182 0.78727961 0.48444489 -0.053793043 -1.1162268 0.099796824 -0.45417207 -0.39792597 1.4610568 0.20864226
bars 0.17609188 -0.23048465 -0.38488191 -0.3076112 -1.1267326 0.836546 0.70004541 0.2985447 -0.056601122 -0.87318015 0.039633159 -0.25731492 -0.40205613 1.2659024 -0.034553751
scale 0.18170248 -0.28617552 -0.41617131 -0.28149104 -1.237606 1.0932003 1.0729815 0.43481234 -0.040957883 -1.1452278 -0.17680109 -0.3506723 -0.36598808 1.3184398 0.055693425
pylab 0.156262 -0.56988978 -0.28516746 -0.59461176 -1.0682156 0.98652416 0.81113893 0.39885917 0.093540117 -1.0428914 0.14895177 -0.49086878 -0.42027763 1.5146104 0.20386297
matplotlib.pyplot 0.13037677 -0.44672674 -0.32669649 -0.50654972 -1.2025455 0.95843154 0.84520519 0.45308888 0.063306451 -1.0806667 0.013161858 -0.53908414 -0.4397932 1.4974688 0.17302957
graphs 0.17485911 -0.37531471 -0.33859897 -0.39957231 -1.2266337 0.98073024 0.77854431 0.47878289 -0.011602351 -1.0099244 0.075652972 -0.32856503 -0.47001103 1.3460251 0.087964222
set 0.066304006 -0.31929907 -0.41990539 -0.23889363 -1.1940401 1.0418198 0.90215009 0.38992506 0.064300247 -1.0506461 -0.014805018 -0.35957038 -0.43997034 1.2378401 0.042647142
coordinates 0.10320231 -0.41907799 -0.43302682 -0.33748797 -1.2289652 1.0623703 0.83403987 0.50062454 0.078578465 -1.0576552 0.00024510658 -0.3745915 -0.49632087 1.3248132 0.12612347
surface 0.080482952 -0.40971181 -0.45846298 -0.18596168 -0.99374497 0.99752808 0.7815246 0.42366877 0.027713945 -0.97874385 -0.018637348 -0.27051145 -0.35000509 1.2152346 0.1181408
figures 0.18656811 -0.49883163 -0.35724977 -0.5614574 -1.1532197 1.0628718 0.686692 0.52053195 -0.011937934 -1.0562176 0.045616064 -0.44391808 -0.42737669 1.4029624 0.12401014
number 0.12165664 -0.35183629 -0.46251887 -0.33131987 -1.3740112 1.0939415 0.94072896 0.46396601 0.061052106 -1.1660933 -0.033678077 -0.3853884 -0.54459041 1.4647399 0.065448478
range 0.11661285 -0.2494532 -0.41877386 -0.22942026 -1.1981654 0.99125844 0.99034113 0.44954723 0.038767051 -1.0850518 -0.02393725 -0.33967096 -0.40979058 1.3474363 -0.0029446841
way 0.14175496 -0.3902483 -0.39002326 -0.40264347 -1.2767414 1.1068604 0.86900777 0.52146345 0.071487337 -1.1193185 -0.024601247 -0.38109899 -0.50122207 1.3782243 0.056530233
heatmap 0.089233704 -0.33238122 -0.4324998 -0.32506078 -1.2184697 0.94520384 0.84710103 0.42916021 -0.011179601 -0.98995912 0.02605333 -0.33217889 -0.3798283 1.1951981 0.038931545
plotting 0.20480597 -0.47556603 -0.43103224 -0.50531709 -1.2455426 1.0319221 0.83879334 0.47433239 0.035042215 -1.1055151 0.086735122 -0.45587295 -0.45398989 1.5642718 0.084082551
date 0.26908785 -0.19135964 -0.55252659 -0.2772283 -1.3149393 0.90123647 0.98535103 0.35702133 -0.13166134 -1.0311399 0.016899724 -0.30610058 -0.36213166 1.2693334 0.003981628
column 0.13981757 -0.33122239 -0.49056682 -0.24215698 -1.4099879 0.99869418 0.92169982 0.3776412 -0.019456681 -0.96477741 0.12568164 -0.2165249 -0.5378744 1.2828354 -0.028116943
custom 0.090154462 -0.31983674 -0.438829 -0.32589293 -1.2336148 1.0843785 0.90742075 0.45765918 0.017473828 -1.0794175 -0.072420284 -0.34404829 -0.46874636 1.3355052 0.061989401
matrix 0.056628086 -0.4711068 -0.43648764 -0.28513694 -1.2796119 1.0586008 0.91571087 0.50384992 0.062634073 -1.0437653 0.019177733 -0.3881948 -0.49052963 1.3734667 0.084338263
jupyter 0.41378051 -1.1251595 -0.4622615 -1.8902706 -0.58718431 0.89688414 -0.017434252 0.69290823 -0.24414623 -1.2393098 0.80288613 -0.47058034 -0.35948956 2.1565459 0.47208223
numpy 0.054605495 -0.53358102 -0.42024925 -0.36141986 -1.3220667 1.2353746 0.91230571 0.52731001 0.021823732 -1.1233612 -0.029817507 -0.57531154 -0.5985148 1.5772955 0.16819134
images 0.17915159 -0.53722703 -0.3509762 -0.51088345 -1.1519303 1.0774926 0.80601692 0.51194662 0.077761956 -1.0576735 0.014402825 -0.43412393 -0.43436351 1.458719 0.14750485
columns 0.16190352 -0.34012473 -0.52736777 -0.19903894 -1.346482 0.91673428 0.83922708 0.39668831 -0.0054156203 -0.95413756 0.12667961 -0.1175942 -0.46040493 1.1814795 -0.068849787
display 0.13949651 -0.46356747 -0.39529037 -0.46733883 -1.255942 1.0219846 0.85162574 0.43031743 0.11957369 -1.0665753 0.0062851505 -0.48758739 -0.4386965 1.4767301 0.15331967
module 0.066825777 -0.72677976 -0.36218974 -0.74697626 -1.2223214 1.1541305 0.84620404 0.53398472 0.098908082 -1.1120656 -0.020695925 -0.62867898 -0.67989212 1.9617838 0.25814807
issue 0.10632492 -0.43316227 -0.35028639 -0.43527094 -1.1782982 1.0444273 0.81077558 0.46309006 0.036126763 -1.0991318 0.066708729 -0.4443197 -0.50639641 1.4384959 0.093806572
grid 0.10221025 -0.39245784 -0.38410509 -0.35133389 -1.0643907 0.99551779 0.73657787 0.43682548 0.051472176 -0.95985174 -0.039204113 -0.34105325 -0.42932445 1.2436715 0.069937825
marker 0.085841119 -0.38474748 -0.41373602 -0.23651953 -1.0999372 0.91624373 0.8054685 0.38327596 0.056385625 -0.98243034 0.0021597331 -0.33397612 -0.41026068 1.153284 0.039762054
show 0.13824826 -0.40551868 -0.32818165 -0.394007 -1.0544431 0.98001051 0.72708982 0.44932318 0.028841367 -0.98982638 0.042478338 -0.34863079 -0.36844707 1.3008581 0.15728883
matplotlib 0.15069395 -0.35317105 -0.3856096 -0.33563557 -1.172079 0.99383175 0.77973294 0.36583927 0.01258709 -0.96642321 -0.017513888 -0.40539688 -0.42246813 1.2698449 0.12418197
output 0.16766438 -0.56347346 -0.33285648 -0.52466267 -1.1771449 1.0729656 0.78035939 0.44114468 0.040977176 -1.0314984 0.10894694 -0.4275983 -0.46602219 1.5376043 0.1924845
dates 0.19937554 -0.26027319 -0.39915606 -0.28509766 -1.1082785 0.8708564 0.81504142 0.39151189 -0.031580258 -0.92569786 0.047717821 -0.29696798 -0.38012516 1.208182 -0.007375482
csv 0.24727848 -0.40849358 -0.42660779 -0.29380521 -1.2166741 0.89424193 0.70943385 0.34908706 0.046760894 -0.8340621 0.1587531 -0.23877159 -0.42331472 1.1345557 0.055394992
curve 0.085346743 -0.38465893 -0.35480493 -0.34287953 -1.209049 1.0602347 0.84489256 0.47126099 0.012005886 -0.9925521 0.044126332 -0.4241907 -0.45737356 1.3654586 0.12389842
import 0.11985072 -0.5469628 -0.32144266 -0.64418131 -1.0972768 0.96147454 0.71023268 0.38939548 0.0098292679 -0.96011686 0.083283938 -0.54138732 -0.44793162 1.6224636 0.15002246
valueerror 0.18621232 -0.51168108 -0.42813656 -0.43091691 -1.3235005 1.1004168 0.91971749 0.48091844 0.017819481 -1.1575212 0.024384376 -0.54003805 -0.57709777 1.5423234 0.17064293
position 0.17265953 -0.29888189 -0.35831195 -0.34032676 -1.1256967 0.97847605 0.81525856 0.44212171 -0.014170785 -0.97134274 -0.053777814 -0.39334276 -0.4279303 1.2085912 0.06506294
code 0.1651593 -0.47801709 -0.38283759 -0.4693909 -1.1898832 1.0484389 0.75177199 0.4846074 0.057438497 -1.0788616 0.12818769 -0.44806653 -0.49055317 1.5096139 0.15998614
font 0.14663775 -0.39590946 -0.38504201 -0.3999666 -1.2313739 1.0560211 0.81325173 0.42661336 0.015853602 -1.0543612 -0.0416095 -0.43611386 -0.46238568 1.2852744 0.1390693
/ 0.18040116 -0.50324804 -0.38280728 -0.56300569 -1.2211605 1.0688344 0.88159949 0.48067576 0.035540506 -1.1135496 0.09924569 -0.45939165 -0.42489457 1.5349855 0.204925
x-axis 0.18153684 -0.24475659 -0.42822519 -0.27528825 -1.1015801 0.84498954 0.78424782 0.35586962 -0.0023528398 -0.9287836 0.019740762 -0.34053934 -0.34813821 1.1792814 0.059730563
boxplot 0.1647785 -0.31848818 -0.42001814 -0.29190186 -1.1827828 0.97840452 0.81737947 0.41938189 0.057005815 -0.94220895 -0.0016440619 -0.35035124 -0.43044859 1.2976232 0.052967992
title 0.12820424 -0.35671282 -0.3341555 -0.35485277 -1.0712392 0.92864114 0.74394739 0.39960933 0.019152848 -0.93615204 0.0042957943 -0.3275772 -0.33762205 1.1189004 0.074438505
format 0.1391276 -0.32040274 -0.40230459 -0.36443946 -1.275828 1.0535375 0.87891459 0.51911503 -0.031937141 -1.0918931 0.0056500253 -0.3959952 -0.5039438 1.3860708 0.041580558
box 0.093711883 -0.40664622 -0.37196037 -0.31716982 -1.0910909 0.90651751 0.74300069 0.39594233 -0.0072612418 -0.91550851 -0.011527603 -0.35795105 -0.41163856 1.2187679 0.076725751
files 0.18808156 -0.46178353 -0.41882697 -0.45886099 -1.2658478 1.0805378 0.80596852 0.53842366 0.0041013183 -1.11516 0.08223258 -0.45093861 -0.52412283 1.5108862 0.15479423
markers 0.1018437 -0.31568518 -0.33985358 -0.28131053 -1.0946175 0.94580054 0.75093228 0.3597019 0.061700772 -0.9274047 0.0019992809 -0.27236643 -0.39741653 1.1189091 0.093383901
space 0.15685184 -0.25940597 -0.35696492 -0.30855742 -1.1404648 0.92313993 0.75248754 0.43557513 0.025498802 -0.92369336 -0.053157952 -0.37302423 -0.36340737 1.1786753 0.10050127
pdf 0.15561363 -0.42686462 -0.32371458 -0.42553073 -1.1463767 0.96241742 0.70209855 0.51014799 0.029302144 -0.98589551 0.029106013 -0.43770719 -0.4964329 1.3818653 0.14593337
use 0.090306915 -0.43093514 -0.39034376 -0.39872107 -1.2657527 1.1176239 0.84126931 0.47682118 0.040743593 -1.1011268 0.052079841 -0.47785169 -0.49922156 1.4911667 0.13980132
area 0.13078596 -0.30691922 -0.38864794 -0.34194958 -1.0272073 0.96146619 0.7529912 0.41047436 -0.013929476 -0.87399137 0.042287849 -0.30829418 -0.40610802 1.1868914 0.10394889
scatterplot 0.056551855 -0.35648909 -0.34364259 -0.26584429 -1.058555 0.8813678 0.72191435 0.38526514 0.052720014 -0.92339313 -0.023315083 -0.33610788 -0.42632025 1.1761751 0.078222357
index 0.18016474 -0.30290505 -0.39212105 -0.28455567 -1.1954563 0.89373595 0.75564665 0.39192808 0.035273891 -0.91275352 0.023685228 -0.34583127 -0.41324395 1.2400413 -0.031474728
arrays 0.11573781 -0.42440832 -0.38501692 -0.29262531 -1.0532105 0.92430395 0.72838664 0.42282945 0.05671278 -0.96715707 -0.027402503 -0.39003885 -0.44318625 1.2127526 0.10967799
default 0.044263348 -0.30902398 -0.33204892 -0.34147406 -1.1047298 0.97792083 0.74137872 0.38749126 0.088887691 -0.97990429 0.0027180973 -0.39127731 -0.427968 1.2422673 0.061592627
gui 0.085048884 -0.40282696 -0.24342291 -0.54718518 -1.0904396 0.97089881 0.66227937 0.4252089 0.011486823 -1.0051805 0.12102325 -0.39767367 -0.40626246 1.3689574 0.13047218
script 0.13469563 -0.45981708 -0.2917175 -0.50620961 -1.1677557 0.99596858 0.79312581 0.4155989 0.053348567 -1.0021336 0.097226173 -0.42824519 -0.49234232 1.4555207 0.14441454
latex 0.10116082 -0.39667004 -0.36383346 -0.4149895 -1.1757457 1.0365207 0.83603418 0.42083049 0.043524276 -1.0181191 -0.0021449621 -0.40649474 -0.48016882 1.3405495 0.12820686
frame 0.11057281 -0.35993084 -0.2870917 -0.27555707 -0.99112839 0.81133223 0.6531238 0.35252541 -0.031287916 -0.80827159 0.051794242 -0.31533277 -0.32002503 1.0597318 0.085871637
order 0.13494961 -0.29752198 -0.38278922 -0.31909448 -1.146783 0.96008044 0.73500144 0.39043802 0.039684873 -0.93712264 0.049442273 -0.35245383 -0.42929506 1.2039372 0.057966474
table 0.15194604 -0.34380084 -0.38796479 -0.35828713 -1.0879978 0.8796379 0.67372853 0.42011365 0.024454178 -0.86584067 0.014088832 -0.33465683 -0.41554484 1.1414474 0.081381969
add 0.067504831 -0.31572247 -0.32251999 -0.26277667 -0.94766414 0.85280347 0.63928473 0.35075146 0.018346583 -0.85331291 0.0099025602 -0.29936391 -0.34138691 1.0735259 0.09452834
charts 0.16514336 -0.31674948 -0.3402178 -0.33510244 -1.0905032 0.91661847 0.6741448 0.44398394 -0.049402229 -0.88907039 0.032412272 -0.22852747 -0.37534261 1.2175766 0.018836021
% 0.29255408 -0.75354683 -0.25928301 -0.97021645 -1.0428436 0.96518594 0.67993265 0.47628099 0.08944378 -1.0052992 0.43197155 -0.57867771 -0.36055133 1.7960788 0.36196241
y-axis 0.121549 -0.2585851 -0.30022782 -0.27699599 -0.96480381 0.8473388 0.65380591 0.35479915 -0.0077708969 -0.83422732 0.0016724571 -0.27812454 -0.37721193 1.0247067 0.10312796
importerror 0.1128711 -0.46671802 -0.22595143 -0.74476105 -1.1293643 0.92837638 0.63590419 0.40554112 0.040967427 -1.0664639 0.078088492 -0.64026773 -0.54487783 1.6479915 0.16826464
draw 0.085245349 -0.38703978 -0.32199213 -0.36166835 -1.0224407 0.91087437 0.71098286 0.39727709 0.056464612 -0.89368427 0.05675396 -0.31525117 -0.40127024 1.1572692 0.11070206
limits 0.094015166 -0.26422316 -0.3339701 -0.27508423 -0.95914084 0.81806988 0.76106644 0.37932321 0.013400053 -0.90222555 -0.075844906 -0.25949764 -0.31539461 1.0049717 0.054626904
background 0.064534552 -0.38599712 -0.34078959 -0.32245061 -0.97058606 0.87134391 0.65916353 0.3775028 0.065939844 -0.84179014 -0.027235152 -0.32149377 -0.38869712 1.1248789 0.11491745
log 0.10497331 -0.241954 -0.44321081 -0.32022831 -0.9856894 0.98339963 0.89478165 0.46877542 0.025367541 -0.99739158 -0.057654839 -0.28860673 -0.35885856 1.1043967 0.074658334
type 0.073151782 -0.39311683 -0.38087672 -0.32143834 -1.0685275 0.99362373 0.70981807 0.41939944 0.028648729 -0.99347758 0.026347371 -0.37891984 -0.47701037 1.2815351 0.040406309
style 0.11378782 -0.34225684 -0.35264227 -0.33159709 -1.1337144 0.9096846 0.76044858 0.37865534 0.048067719 -0.91543603 0.0040485822 -0.38935816 -0.43470272 1.2789468 0.057390731
colour 0.10886151 -0.29281533 -0.32871497 -0.28642848 -1.0260532 0.9087649 0.74443561 0.414341 0.042949449 -0.89927989 0.016879652 -0.26808012 -0.42910427 1.1439589 0.054294232
width 0.10393745 -0.27445242 -0.35765162 -0.26393196 -1.0768216 0.87919933 0.71686077 0.39359754 0.046291124 -0.89471126 0.037418965 -0.30362955 -0.42480674 1.1591369 0.067025587
typeerror 0.11340085 -0.4386237 -0.34707591 -0.41303438 -1.1849064 1.0491171 0.69699097 0.46082777 0.022705141 -1.0031972 -0.014807249 -0.39713374 -0.49327976 1.3462887 0.12664725
histograms 0.068645872 -0.31010455 -0.2862719 -0.25655249 -0.91272259 0.78649861 0.64149928 0.30702293 0.038387831 -0.75250596 0.0044152583 -0.27759349 -0.35181931 0.99250138 0.086025991
distribution 0.076709181 -0.30805048 -0.29644608 -0.35392517 -1.0064867 0.90130627 0.7284528 0.38637811 0.0019824803 -0.9066211 0.067103066 -0.34839439 -0.41997835 1.1708096 0.11767787
numbers 0.07624995 -0.32899314 -0.28892845 -0.33244416 -0.99147987 0.86499894 0.649225 0.39119843 0.0054627354 -0.80659449 -0.00232262 -0.34422341 -0.33388555 1.0485535 0.10631464
event 0.15201437 -0.40533143 -0.33201393 -0.41688821 -1.2014471 1.0681276 0.73562485 0.46428502 0.044789851 -1.0432817 0.028006287 -0.44389176 -0.48149836 1.3548776 0.13170184
xticks 0.079859249 -0.25240517 -0.30828092 -0.26537681 -0.98630661 0.84348851 0.69806361 0.38038135 0.012092565 -0.8243891 -0.040359959 -0.31003031 -0.36818767 1.0751935 0.065652162
y 0.16835408 -0.21138072 -0.37735125 -0.26120341 -1.0361571 0.81396985 0.8093915 0.36756557 -0.045863029 -0.92107451 -0.087942876 -0.32050988 -0.38355067 1.0857373 0.016078297
pyqt 0.1066431 -0.41182718 -0.33411026 -0.41673926 -1.0508343 0.93947142 0.6741994 0.4295682 -0.0065873479 -0.93399495 0.034352593 -0.39170897 -0.41796565 1.2483921 0.089846335
] 0.17322855 -0.48322436 -0.43244192 -0.45241079 -1.3163807 1.2409533 0.88325822 0.49764454 0.024625106 -1.1649903 0.071740858 -0.49612167 -0.55957192 1.5540142 0.13673373
networkx 0.078179121 -0.38366741 -0.29686987 -0.32479697 -1.0267057 0.87274402 0.63108528 0.38722429 0.076127991 -0.88955539 0.01597742 -0.3533985 -0.37577033 1.1338685 0.10177415
name 0.065263927 -0.46237341 -0.37005726 -0.429378 -1.1327742 0.97075409 0.75670087 0.42423964 0.07417348 -0.91638583 0.020866938 -0.40784094 -0.49605221 1.4150651 0.11639658
datetime 0.12839568 -0.24606524 -0.31415442 -0.28593487 -0.9310447 0.73274428 0.63833678 0.29254603 -0.0056493981 -0.75485861 0.040415358 -0.31010899 -0.3333239 1.026091 0.037507605
class 0.062830679 -0.34250492 -0.32507381 -0.33603999 -1.0700504 0.91136301 0.70557868 0.42779759 0.030048901 -0.92827415 0.0091532329 -0.40179729 -0.47425425 1.2404222 0.065854147
canvas 0.087714069 -0.34321997 -0.22116445 -0.4182992 -0.93406445 0.82936454 0.53247148 0.39431325 -0.019784402 -0.82526159 0.079552948 -0.3756521 -0.3605248 1.0704391 0.089189865
memory 0.094259016 -0.35903135 -0.28907105 -0.36989695 -0.89329642 0.83121002 0.59492111 0.33859342 0.010858154 -0.81976008 0.01784825 -0.35930532 -0.33703569 1.1032417 0.074166477
problems 0.099552087 -0.37121615 -0.31828454 -0.42280614 -0.996696 0.87212241 0.67450511 0.41705137 0.016180586 -0.85821187 0.024226991 -0.38319224 -0.41008213 1.2325084 0.10004479
frequency 0.103001 -0.2925261 -0.36465165 -0.28224474 -1.032433 0.90237463 0.70080608 0.39860797 0.032840133 -0.88100564 0.032087289 -0.30643716 -0.40499246 1.157038 0.049201153
+ 0.13806841 -0.53280634 -0.29886234 -0.56098688 -1.1555582 1.035301 0.77850759 0.43394059 0.012179163 -1.0749725 0.071886204 -0.50864375 -0.43286395 1.5059458 0.22799377
top 0.10766768 -0.2792283 -0.29496399 -0.29865134 -0.98189431 0.81987971 0.64670664 0.3502802 0.015305436 -0.77660912 0.027647782 -0.28758749 -0.37989536 1.0192281 0.10547766
savefig 0.1160868 -0.36815241 -0.28107408 -0.36664772 -0.9654206 0.79295677 0.60635936 0.37310088 0.0074619818 -0.85660666 0.009178265 -0.33494172 -0.41289172 1.0881257 0.12721178
density 0.059133667 -0.31334493 -0.35813919 -0.31411946 -0.96718287 0.83632654 0.70046312 0.37239563 0.051330723 -0.87306052 0.012550297 -0.35020018 -0.41326833 1.1181699 0.10695959
ca 0.12000203 -0.32754856 -0.29234362 -0.36229867 -0.91164452 0.75379992 0.580015 0.3445875 0.050711296 -0.80819684 0.069258235 -0.35587582 -0.38946164 1.1212306 0.13729836
multiple 0.11061282 -0.28077674 -0.31388751 -0.28477728 -0.89776742 0.77412218 0.60946345 0.32581735 -0.021125242 -0.77277249 0.042251952 -0.30643681 -0.36182892 1.0291682 0.057510994
argument 0.091044441 -0.3769722 -0.28581733 -0.33693704 -1.1044163 0.92150623 0.75192046 0.42407358 -0.0075696399 -0.97464997 -0.018934008 -0.43107367 -0.4297317 1.2719016 0.13188945
mac 0.13033554 -0.35314971 -0.26685107 -0.48689488 -1.0149484 0.99036348 0.67515957 0.42995471 0.054221079 -0.98062968 0.071996383 -0.52214223 -0.42565784 1.2831439 0.17906012
backend 0.13397937 -0.48128417 -0.33831221 -0.55065823 -1.164413 1.0479771 0.80987573 0.44678658 0.01168342 -1.0280855 0.12039401 -0.49857607 -0.45219368 1.5071156 0.15513235
regression 0.13900349 -0.34648615 -0.35378495 -0.29655915 -0.96776909 0.89655966 0.64717299 0.33985254 0.041198898 -0.82250452 0.03111681 -0.29152185 -0.41507265 1.1500045 0.084991172
create 0.10923924 -0.30114123 -0.30978164 -0.25408319 -0.90223831 0.75635743 0.59117544 0.36630011 0.042345222 -0.75344229 -0.019910404 -0.25192282 -0.3471683 0.96791685 0.090208948
lists 0.11749908 -0.27270821 -0.30512059 -0.27354717 -0.90812492 0.77792859 0.6159693 0.37200961 0.0084722238 -0.77105618 0.0066356901 -0.31994039 -0.35668397 1.0011542 0.10781334
wxpython 0.11966697 -0.35163599 -0.28475177 -0.34998533 -0.90354711 0.82490224 0.62761623 0.36696059 0.059876718 -0.84006721 0.035979573 -0.37641314 -0.35772496 1.0784158 0.11254164
attribute -0.021559443 -0.42682743 -0.33002526 -0.46891806 -0.92394501 0.89644802 0.53210258 0.29568902 0.004159153 -0.79861611 -0.094152682 -0.44690597 -0.49496627 1.2171944 0.10055725
side 0.092093349 -0.30976561 -0.28317329 -0.27444971 -1.034252 0.88731867 0.64307904 0.35197178 0.036615815 -0.82298595 -0.067991935 -0.30324543 -0.32869703 1.0507734 0.05608771
widget 0.10458367 -0.43912932 -0.23433629 -0.45564142 -0.98079175 0.85592806 0.61728799 0.35761499 0.022507152 -0.93478417 0.061857726 -0.41922715 -0.41956922 1.2151901 0.10430425
functions 0.12925978 -0.36086333 -0.27229339 -0.31413999 -0.93616843 0.83062685 0.64009464 0.36831608 0.019980632 -0.80370605 0.058145769 -0.33680233 -0.3392083 1.0358503 0.12772724
string 0.088006496 -0.32851648 -0.3197968 -0.35632619 -0.96538091 0.8372649 0.62747055 0.35469231 0.02710315 -0.83107489 -0.0087761497 -0.37152943 -0.39587751 1.148072 0.071446039
django 0.15269813 -0.38162795 -0.28634441 -0.40416816 -1.0277985 0.91944236 0.70736563 0.39841542 0.057042047 -0.94668734 0.027122438 -0.43262243 -0.42399713 1.2887099 0.14786008
projection 0.093690231 -0.38864455 -0.36359674 -0.36925977 -1.0069944 0.88645005 0.64629662 0.44517416 0.026834141 -0.85226971 -0.023956597 -0.3550939 -0.44143853 1.1614577 0.12567949
funcanimation 0.11327644 -0.34836403 -0.23530915 -0.35648429 -0.91822398 0.77527291 0.55485243 0.37076536 0.052134026 -0.75248265 0.0076617817 -0.31765613 -0.32841167 1.0614811 0.071449697
inline 0.28566438 -0.63087344 -0.14580417 -0.85394222 -0.79091316 0.70563602 0.59840596 0.28262031 0.055743266 -0.73770118 0.3602455 -0.43971473 -0.31248888 1.3407624 0.31640261
bins 0.039377764 -0.25278544 -0.33011648 -0.27565873 -0.86981446 0.7762205 0.61179316 0.32796648 0.041744851 -0.79205078 0.017222371 -0.2629734 -0.34237748 0.97637963 0.042050634
contourf 0.040872358 -0.27775133 -0.24553403 -0.22939582 -0.79656523 0.76663613 0.56356215 0.33315462 0.0069639818 -0.71200091 -0.0082944501 -0.24274112 -0.28474668 0.94069248 0.060416434
variables 0.078589961 -0.33215401 -0.29123119 -0.29802197 -0.91513628 0.75839853 0.62528765 0.35949844 0.028729962 -0.74317402 0.026243342 -0.29874617 -0.35581604 1.0724242 0.073584892
os 0.11596678 -0.37997681 -0.32807812 -0.42339548 -0.96873456 0.77396482 0.78242469 0.40488252 -0.019549929 -0.87959391 0.066937283 -0.56590271 -0.39955261 1.256375 0.13898627
circle 0.060440209 -0.29017591 -0.22932242 -0.26844421 -0.84126037 0.72613883 0.5680663 0.34315488 0.038433645 -0.68197232 0.0047063041 -0.24762495 -0.33094534 0.95276767 0.10102232
update 0.09386795 -0.29961354 -0.25382781 -0.31954569 -0.8179 0.76511401 0.55656016 0.32262573 0.018460717 -0.74531955 0.030037161 -0.33837581 -0.36396295 1.042704 0.10154361
objects 0.074315198 -0.35654643 -0.22964057 -0.28693634 -0.91687775 0.77233648 0.65103298 0.34238803 0.011224371 -0.81268853 0.0095919408 -0.33454815 -0.38337442 0.98734218 0.099574059
method 0.10173345 -0.36620954 -0.32985908 -0.39059237 -1.08315 0.93473095 0.69716436 0.38713899 0.022824524 -0.96557713 0.035254415 -0.41490921 -0.45598012 1.2520243 0.12319645
attributeerror 0.014896843 -0.41513476 -0.35473347 -0.44202697 -1.1025617 1.0171856 0.64753187 0.38216537 0.077868141 -0.9309876 -0.022249687 -0.44293004 -0.52283973 1.3593422 0.090297729
mouse 0.11969404 -0.33322278 -0.33627546 -0.3502059 -0.96892774 0.90608788 0.64179808 0.41051233 0.050124902 -0.84073699 0.043164451 -0.34964171 -0.36775324 1.1373144 0.097550094
results 0.13827786 -0.35004008 -0.30743337 -0.3433274 -1.0013943 0.8859067 0.68982732 0.3796317 0.010550298 -0.84791434 0.028697573 -0.38947812 -0.42608282 1.2035218 0.082403235
input 0.14200756 -0.32242545 -0.28103819 -0.3582795 -0.88007993 0.80852151 0.62612551 0.34919384 0.031028189 -0.77441597 0.05519326 -0.29441711 -0.35806856 1.0828092 0.079167999
matplot 0.1121204 -0.24099864 -0.22666353 -0.27305454 -0.95098984 0.76971251 0.61318171 0.3295972 0.0025631562 -0.77590716 -0.022302557 -0.2781882 -0.33323881 1.0229892 0.081284069
button 0.1211089 -0.36491847 -0.26179898 -0.36481041 -0.90572411 0.85070801 0.62664151 0.38279551 0.0049450831 -0.84019858 0.029840494 -0.38711786 -0.40494743 1.0861131 0.097868465
scipy 0.062234268 -0.40899754 -0.32571507 -0.44620591 -1.1254869 0.9865731 0.77463651 0.45019144 0.020067241 -1.0035039 0.022203261 -0.44515803 -0.46132463 1.3266249 0.11457723
barplot 0.10325621 -0.2133835 -0.25076324 -0.27218336 -0.80221725 0.64109421 0.55616421 0.25157779 0.031771161 -0.65958357 0.044570036 -0.28796464 -0.2927402 0.92432427 0.064553812
row 0.094438545 -0.26068667 -0.33763859 -0.25011751 -0.97596294 0.7442705 0.62562561 0.31035271 8.9807319e-05 -0.76988953 0.044372294 -0.22298606 -0.40613261 0.99300742 0.05160287
annotation 0.042673036 -0.24675788 -0.23015383 -0.23076542 -0.8100757 0.66337162 0.55388522 0.30118099 0.03563311 -0.66683269 0.015634917 -0.22087841 -0.31042415 0.87543374 0.048311427
vector 0.084701054 -0.37847164 -0.3335889 -0.3154999 -1.0162493 0.87191784 0.72797167 0.3662107 0.052747969 -0.90220606 -0.0023042962 -0.40078089 -0.42939329 1.2256234 0.12271613
length 0.11286753 -0.28048179 -0.31477788 -0.27745333 -0.98290199 0.82540935 0.65696651 0.37317094 0.045769107 -0.8417592 0.010037272 -0.33209872 -0.40752167 1.0807633 0.081343904
pie 0.18956484 -0.2597717 -0.294994 -0.28766716 -0.87731409 0.71693909 0.51974726 0.17127642 0.085775696 -0.63228995 -0.02699049 -0.24316069 -0.27829912 0.9665333 0.098913923
quiver 0.0773587 -0.23639029 -0.26409301 -0.19245045 -0.73148924 0.6867196 0.50966525 0.30870298 0.038307935 -0.67224622 -0.032552786 -0.24895613 -0.28327629 0.87347227 0.082023144
shape 0.085412122 -0.33213076 -0.29086593 -0.27266514 -0.9566797 0.82885039 0.65547502 0.38233528 0.048435006 -0.7845211 -0.042125214 -0.3478137 -0.39852837 1.0284173 0.068579264
variable 0.050780829 -0.32883936 -0.23904754 -0.26972336 -0.87980765 0.76393932 0.56453353 0.31595314 0.072251149 -0.73840958 0.064719416 -0.29547971 -0.35376042 0.97785062 0.11462075
location 0.07733798 -0.29977843 -0.28103089 -0.27804595 -0.93357009 0.78055722 0.61687076 0.31897211 0.045277938 -0.79923737 -0.016807783 -0.29583737 -0.34842971 0.97916603 0.089565083
issues 0.083510183 -0.28566882 -0.2966435 -0.32853541 -0.84427744 0.77451235 0.56106657 0.3144308 0.017410967 -0.75501484 0.038911618 -0.29588196 -0.31930512 0.98957711 0.088423267
remove 0.058969032 -0.25197753 -0.23872313 -0.2473197 -0.86758763 0.71643221 0.57958776 0.35822502 -0.0085188374 -0.76026946 -0.0041316464 -0.3199003 -0.34853959 0.93348008 0.095996551
pycharm 0.11387518 -0.37482736 -0.26900616 -0.41655532 -0.86838537 0.76082313 0.6007641 0.33960259 0.010653287 -0.77532947 0.096149124 -0.30796123 -0.32941905 1.0941262 0.14237216
pcolormesh 0.055229887 -0.31947154 -0.22786222 -0.2589663 -0.81449974 0.71255428 0.56569421 0.31186029 0.048896786 -0.72500944 0.013632036 -0.2705141 -0.33524111 0.9329229 0.086880937
z 0.11129733 -0.24385263 -0.27741501 -0.19571398 -0.89804471 0.75712681 0.71437603 0.37114453 0.013680345 -0.78734863 -0.052007429 -0.34031627 -0.3457253 0.9948948 0.054305773
fill 0.07231687 -0.25472766 -0.25740737 -0.23689662 -0.77490878 0.72105926 0.5427295 0.32791036 0.027725704 -0.67849344 0.027707139 -0.2983025 -0.3092033 0.91514903 0.031820744
cartopy 0.048755977 -0.3030085 -0.31108707 -0.31799504 -0.91978884 0.79445916 0.64143139 0.37912962 0.07720989 -0.8232699 0.010413015 -0.32672179 -0.41412005 1.0926802 0.10020558
heat 0.12629202 -0.29209471 -0.36998397 -0.17743231 -0.78422749 0.75253344 0.47540155 0.36323628 0.13755617 -0.6058057 -0.075075135 -0.1979337 -0.38031483 0.99159211 0.089961469
rows 0.066260062 -0.28696856 -0.30924994 -0.24112125 -0.91424221 0.75235963 0.59004396 0.3666192 0.024206577 -0.72545069 0.027006935 -0.27353293 -0.38050294 0.99716032 0.0361812
install 0.064927906 -0.31006491 -0.25631338 -0.38036776 -0.91198391 0.82406771 0.59798557 0.39695409 0.084556989 -0.8547318 0.018061431 -0.43554074 -0.40522107 1.1679177 0.11184664
get 0.049731318 -0.247252 -0.22283401 -0.26326779 -0.7859537 0.68988389 0.49501342 0.30403885 -0.0054020802 -0.68472415 -0.0057118549 -0.28585052 -0.29879653 0.89529848 0.073301233
groupby 0.1265461 -0.21565157 -0.22923169 -0.20148912 -0.68250501 0.55483383 0.48706111 0.21987119 -0.0012396604 -0.53860265 0.031644616 -0.17174721 -0.28100643 0.77217382 -0.022308705
pip 0.051370416 -0.32944715 -0.20817286 -0.33705351 -0.84531271 0.7731145 0.56716245 0.31514153 0.014949639 -0.77474773 0.039426513 -0.36762938 -0.41547391 1.048999 0.10303698
matlab 0.095905013 -0.34625664 -0.24879891 -0.32630602 -0.87819284 0.82324976 0.66682786 0.3561461 0.06161122 -0.81025392 0.019429095 -0.30342823 -0.40391144 1.0628746 0.09907604
command 0.07595171 -0.37308723 -0.28018281 -0.3522751 -0.88422894 0.78682542 0.55185455 0.32155317 0.062857643 -0.77673012 0.052701663 -0.31262556 -0.39986947 1.0941271 0.084229745
arrow 0.045791008 -0.27729577 -0.28436583 -0.26846075 -0.87350237 0.76798487 0.558415 0.35910729 0.012931898 -0.79279548 -0.032190736 -0.29137754 -0.37315729 1.0227759 0.10395409
pyqt4 0.12188611 -0.27666858 -0.19648555 -0.3114444 -0.80907053 0.6877259 0.50566506 0.34750086 0.037274282 -0.70783544 0.038614087 -0.28141665 -0.31419984 0.96556658 0.063409448
group 0.11086506 -0.2807802 -0.25581399 -0.21101297 -0.86471432 0.70064551 0.57543117 0.27290508 0.040320072 -0.6752317 0.018157715 -0.23636422 -0.32980779 0.91305929 0.027145166
[ 0.076064162 -0.43816331 -0.32444924 -0.35134155 -1.1773286 1.0095067 0.7859903 0.5257839 0.051355112 -1.0364178 -0.042869903 -0.39461339 -0.52441251 1.2366083 0.085749157
program 0.14137918 -0.37404576 -0.28640783 -0.39535937 -1.022042 0.86390114 0.64142269 0.41265985 0.01699644 -0.90662909 0.0292821 -0.39947975 -0.40503564 1.1589761 0.085732222
windows 0.10733852 -0.35531214 -0.31189373 -0.4315207 -1.0040717 0.87643409 0.64840198 0.39980292 0.01532908 -0.88216281 0.016227765 -0.37511232 -0.43890586 1.2308807 0.12927808
curves 0.12927829 -0.32521421 -0.32347238 -0.34870684 -0.90284741 0.82986063 0.61361688 0.37814626 0.033062421 -0.77157944 0.0528991 -0.31930268 -0.33940753 1.0779526 0.06783431
pcolor 0.066342048 -0.22422768 -0.23472004 -0.23810743 -0.71828777 0.60810608 0.48196492 0.30834296 -0.0029111388 -0.60651797 -0.026320545 -0.20937034 -0.25473598 0.83713853 0.040244766
circles 0.069879152 -0.30386624 -0.25999728 -0.25426283 -0.75055963 0.66482025 0.53284734 0.31288207 0.050065961 -0.66216236 -0.012903525 -0.29976457 -0.32316393 0.91805667 0.088459305
coordinate 0.087210692 -0.30042031 -0.30785286 -0.32951003 -0.87882632 0.83495653 0.61382496 0.37733328 0.058450647 -0.78286922 0.00055028097 -0.34545884 -0.36080861 1.0405376 0.10121226
bin 0.05251405 -0.23587954 -0.2738212 -0.26338062 -0.78632486 0.65947115 0.50698757 0.30561113 0.00025867944 -0.6334815 0.03892434 -0.27165297 -0.27029803 0.91464728 0.024925753
float 0.094339885 -0.30856749 -0.28898028 -0.3028028 -0.85695171 0.76269227 0.58321506 0.3101503 -0.016017888 -0.74275368 0.0081820758 -0.29669189 -0.36257461 1.0299635 0.076160505
colours 0.086280853 -0.27897114 -0.25331709 -0.29872274 -0.91185403 0.7665211 0.61407679 0.35202873 0.037478726 -0.7852748 0.0068981657 -0.27040979 -0.37787783 0.9885428 0.10089434
ratio 0.083089434 -0.26441923 -0.19317064 -0.2799547 -0.68466854 0.67883891 0.46534434 0.30575526 -0.020254195 -0.62869626 -0.051232856 -0.29575235 -0.30749601 0.86290872 0.066762045
gridspec 0.056893248 -0.21832639 -0.23107316 -0.25556183 -0.73632956 0.68077338 0.50352579 0.25820318 0.00012169524 -0.65057552 0.005080305 -0.24221547 -0.28411216 0.86837572 0.025652256
zoom 0.083606794 -0.25796744 -0.24539103 -0.28684473 -0.7862764 0.74751741 0.56608611 0.32587329 -0.0082160775 -0.7077446 0.05804294 -0.26050729 -0.31169927 0.98483509 0.066018589
python3 0.051342461 -0.31116492 -0.19848323 -0.27015278 -0.7335164 0.67060006 0.53886896 0.3191025 0.026265742 -0.65840852 0.050877858 -0.31760794 -0.322768 0.94390011 0.079098314
spyder 0.13226931 -0.33450583 -0.21386343 -0.37559146 -0.72303033 0.58976674 0.51447856 0.30627939 0.0064874939 -0.66077912 0.043371391 -0.25567371 -0.29413906 0.91532546 0.14193875
slider 0.092583008 -0.27788055 -0.18813242 -0.2701478 -0.73134184 0.62951362 0.47973275 0.26050293 0.011584084 -0.6626575 0.039613191 -0.27581409 -0.29143566 0.88536251 0.087274149
difference 0.11512458 -0.30966827 -0.2654888 -0.33628124 -0.92481869 0.77291054 0.63804942 0.34780425 0.048083272 -0.77717453 0.03189119 -0.30537289 -0.38328886 1.0977044 0.080171116
rgb 0.026896566 -0.28138822 -0.25381479 -0.22665402 -0.79302365 0.65738577 0.5319773 0.31254157 0.029177884 -0.68951905 -0.03385257 -0.27879015 -0.33146852 0.93999308 0.07637988
rectangle 0.060953841 -0.23997144 -0.24004214 -0.21120577 -0.75329816 0.65835929 0.5251323 0.30312011 0.018516097 -0.6597271 0.015307046 -0.26190132 -0.32698497 0.83673155 0.034801561
polygon 0.084052421 -0.27824283 -0.25463921 -0.28824317 -0.81209427 0.68188924 0.56726271 0.32335898 0.033567347 -0.69202447 0.017456466 -0.28697518 -0.36188424 0.94558358 0.10209409
anaconda 0.13687223 -0.36921671 -0.25032374 -0.40311295 -0.77788168 0.73885894 0.5702911 0.30860725 0.040262043 -0.74440604 0.071880355 -0.30448249 -0.30555642 1.0453635 0.15391906
gradient 0.097877488 -0.26707619 -0.26640838 -0.25480658 -0.70193404 0.66941059 0.52217412 0.2763575 0.031170772 -0.63051927 -0.013201014 -0.2091836 -0.31677666 0.82077581 0.039377544
patch 0.052760798 -0.3205651 -0.22149596 -0.3096498 -0.79544413 0.72161508 0.55439144 0.31357193 0.036164124 -0.69927043 -0.0096135596 -0.30253577 -0.33837098 0.98634911 0.092661753
errors 0.093433648 -0.30577657 -0.23378287 -0.28683272 -0.81050402 0.69613862 0.52908164 0.28062251 -0.0029963329 -0.73205513 0.015577346 -0.32905236 -0.33104086 0.93984812 0.065664455
height 0.12008534 -0.22823259 -0.19247381 -0.23160051 -0.75307918 0.62427682 0.49601904 0.25404841 0.020948716 -0.60332918 0.017216973 -0.26337916 -0.28496176 0.77899128 0.04889081
contours 0.029251775 -0.27863893 -0.2134753 -0.22138676 -0.73646486 0.6699658 0.48488384 0.29031044 0.014421109 -0.66315389 -0.0048973844 -0.26200956 -0.33795744 0.90125257 0.087745346
package 0.11705916 -0.35300377 -0.27962205 -0.3735806 -0.85375381 0.73086989 0.59826124 0.35174775 0.0096231215 -0.74108934 0.048346654 -0.36994714 -0.35832572 1.0494663 0.10210103
ubuntu 0.10391974 -0.28163195 -0.23447232 -0.32919455 -0.78652 0.66539872 0.54363465 0.31268725 0.033088006 -0.69253576 0.0066077462 -0.33133012 -0.35141686 0.91716272 0.11551835
border 0.04596008 -0.25087139 -0.19416621 -0.21678771 -0.73773688 0.59748149 0.48742673 0.28560439 0.030062035 -0.62267321 0.010089683 -0.26773006 -0.29194033 0.77612156 0.026128452
interval 0.12334575 -0.27197772 -0.25341356 -0.21902393 -0.76536602 0.6585716 0.53084826 0.30814499 0.048161957 -0.65938157 -0.021606388 -0.26429847 -0.30013233 0.92036277 0.074038029
application 0.10189993 -0.29873085 -0.23834637 -0.34564057 -0.89636248 0.80392855 0.57933074 0.34859586 0.04597364 -0.78962719 0.044491809 -0.31050843 -0.3828764 1.0976055 0.067101493
python/matplotlib 0.10169277 -0.2797249 -0.24880795 -0.26442906 -0.8012042 0.63753819 0.50784636 0.26496655 0.031264417 -0.67143196 -0.020204414 -0.25076234 -0.31448647 0.88421923 0.060007863
strings 0.10899118 -0.20972762 -0.19177125 -0.21057269 -0.70525551 0.58216178 0.47057435 0.2228217 0.019317091 -0.53721058 0.027495807 -0.19412731 -0.27450952 0.72533071 0.026545357
sets 0.078614227 -0.19624232 -0.20980772 -0.22159033 -0.63614821 0.53656828 0.43079484 0.24242689 -0.023680108 -0.51252836 0.027563693 -0.19454977 -0.22576733 0.67565024 0.040714659
pyqt5 0.093298927 -0.29387122 -0.20235361 -0.3009139 -0.79344791 0.69358885 0.55003333 0.33185241 0.047623344 -0.7606619 0.046135534 -0.2875855 -0.36447802 1.0320137 0.073962308
toolbar 0.057728309 -0.31600389 -0.21162201 -0.32809371 -0.81518 0.76427126 0.59604293 0.33581519 0.0076384936 -0.76384348 0.069479659 -0.34836358 -0.33482578 1.001545 0.11825454
vs 0.17517237 -0.38353804 -0.30726442 -0.37061033 -1.0218247 0.84210992 0.70930368 0.38394782 0.029267399 -0.86927527 0.062877856 -0.40094104 -0.42236263 1.2518116 0.15243798
mplot3d 0.084933683 -0.25672263 -0.22552165 -0.27766588 -0.75790298 0.6822117 0.5333125 0.29812339 -0.0061193244 -0.6923452 0.032409742 -0.24520484 -0.28698114 0.94102627 0.095923916
resolution 0.060564782 -0.33519739 -0.25977495 -0.30436617 -0.78950286 0.67891967 0.5132069 0.3273502 0.023043267 -0.65407258 0.028051525 -0.27802283 -0.31299588 0.92484671 0.084762879
fit 0.070079468 -0.21867059 -0.22074762 -0.25899038 -0.69819009 0.6530968 0.51166785 0.23531836 0.041568279 -0.60528672 0.0016063312 -0.20405218 -0.30616778 0.81100935 0.040845208
example 0.053426247 -0.28407863 -0.22478157 -0.28316444 -0.81318176 0.73805857 0.52873021 0.31397492 0.060601737 -0.67995471 0.042790279 -0.30914742 -0.32931399 0.93367451 0.085078366
boxplots 0.046530794 -0.23011452 -0.26330033 -0.22745639 -0.74196327 0.63203394 0.46393028 0.30169937 0.0042935 -0.63032657 0.0053400244 -0.27405319 -0.30117035 0.81671339 0.081169836
annotate 0.095594734 -0.21450843 -0.18192853 -0.22286054 -0.71514851 0.56677347 0.47280329 0.2514722 -0.014436935 -0.59520662 -0.015686786 -0.23017348 -0.28783315 0.73431724 0.028644415
version 0.059119239 -0.28202856 -0.21330014 -0.33134302 -0.76501375 0.67740309 0.51923329 0.29379746 0.051705237 -0.71823281 0.056195647 -0.31038487 -0.32174858 0.96353459 0.11884769
dimension 0.080701895 -0.20322689 -0.18442245 -0.19239996 -0.56682861 0.42132756 0.41588309 0.18084736 0.017475383 -0.50613087 -0.044558041 -0.26877445 -0.20866816 0.67224926 0.074568234
mode 0.08340919 -0.2929534 -0.20095244 -0.31021237 -0.7258358 0.6375742 0.49593788 0.24934432 0.0535823 -0.63641477 0.069380432 -0.29065439 -0.27050602 0.92115933 0.11061986
interpolation 0.036842771 -0.21441819 -0.2539725 -0.19641885 -0.70175648 0.59902251 0.48721689 0.28984499 0.031438626 -0.60201609 0.0086978721 -0.27451095 -0.28449067 0.83325773 0.090287894
patches 0.050138962 -0.25089192 -0.24372208 -0.2473675 -0.72692603 0.67129821 0.52589136 0.31710294 0.05301347 -0.62744635 0.011233037 -0.29767621 -0.27921578 0.87542522 0.091419093
convert 0.055556066 -0.26735035 -0.26124135 -0.2494709 -0.78455991 0.67102385 0.55600137 0.29389089 0.022811679 -0.63620126 0.032219518 -0.24222018 -0.33242977 0.85972261 0.070293605
osx 0.10456878 -0.31926367 -0.22486852 -0.33877915 -0.84205467 0.71726459 0.55276465 0.30325529 0.037905253 -0.75194508 0.039970212 -0.37416723 -0.38322344 1.0362276 0.12851174
distance 0.042327166 -0.26198989 -0.23237887 -0.2120434 -0.71985179 0.63254905 0.50761175 0.29146916 0.036892116 -0.65162718 -0.0064547807 -0.23663467 -0.31328574 0.83399254 0.071413219
edges 0.042640969 -0.29248053 -0.25087318 -0.30842346 -0.87882644 0.70986563 0.58486986 0.33029631 0.062120564 -0.72891992 0.058274247 -0.30303848 -0.31927142 0.94608426 0.097658552
path 0.039680839 -0.2805281 -0.25149822 -0.30900443 -0.81810868 0.73156011 0.56555277 0.30863932 0.04993733 -0.70997685 -0.01668193 -0.33337972 -0.34140974 0.96942341 0.086952709
diagram 0.069053113 -0.25560161 -0.22734945 -0.29238111 -0.8493939 0.74055535 0.59978062 0.34042782 -0.0084503898 -0.72118545 -0.0044440716 -0.30406046 -0.33243468 0.95312554 0.065635756
edge 0.0324357 -0.25156766 -0.20988534 -0.22089446 -0.75456136 0.64754921 0.51690125 0.26647779 0.020438636 -0.64402437 0.013843013 -0.25940275 -0.31942061 0.83987075 0.051973034
parameters 0.088021778 -0.25591767 -0.22269423 -0.23520504 -0.74893296 0.6181581 0.49150157 0.28172806 -0.017223323 -0.66389543 0.034429763 -0.2846306 -0.30086276 0.87275213 0.057741299
elements 0.040276334 -0.23618644 -0.19162919 -0.15536855 -0.63039559 0.5559147 0.46603081 0.26431063 0.010248057 -0.58357906 -0.0065039657 -0.23280743 -0.26282993 0.70232695 0.066455401
annotations 0.088870496 -0.17002884 -0.15177689 -0.22956568 -0.54885501 0.49003744 0.36962512 0.20794782 0.036426108 -0.51382214 0.013161946 -0.22367001 -0.19634593 0.64782298 0.032254007
julia 0.088996582 -0.2035418 -0.16953854 -0.21500099 -0.6056236 0.54682398 0.41936269 0.23858957 0.01274407 -0.55589014 0.021374883 -0.19902714 -0.21607046 0.78788996 0.083679944
make 0.098965906 -0.22613128 -0.17082742 -0.26762995 -0.6616286 0.60094088 0.44563285 0.22354963 0.054674212 -0.53134292 0.028589401 -0.24550231 -0.28231597 0.72219443 0.054527264
legends 0.038139053 -0.19193779 -0.16536887 -0.23658021 -0.56801432 0.50306821 0.34425944 0.20375164 -0.0036215545 -0.49814796 0.028287161 -0.21169794 -0.18327746 0.64256078 0.077607267
notation 0.11755179 -0.24348715 -0.28247359 -0.23142029 -0.77074653 0.64864421 0.55202055 0.32492733 0.034144063 -0.65735233 -0.030113928 -0.25222996 -0.29720259 0.819893 0.06164946
dimensions 0.089982174 -0.25540775 -0.20849636 -0.26201901 -0.66290724 0.5899502 0.47069973 0.23667699 0.0029415768 -0.60466117 -0.021411097 -0.23392649 -0.291632 0.78855646 0.03270876
qt 0.16121048 -0.40035263 -0.19935514 -0.4125948 -0.84830856 0.73868465 0.59447634 0.35380599 0.057465646 -0.77716607 0.081231713 -0.3811385 -0.35645109 1.1066765 0.15171967
arguments 0.10579357 -0.30389228 -0.22086358 -0.29671815 -0.72933209 0.65073204 0.53225017 0.31730762 -0.0062343059 -0.68496162 0.033022013 -0.27236369 -0.28081021 0.856318 0.074145854
result 0.10490613 -0.31135067 -0.22390345 -0.25020614 -0.83260518 0.71383721 0.51902455 0.34079406 0.0016047573 -0.67088044 0.01548675 -0.29309484 -0.32940909 0.89054859 0.048444755
png 0.090385988 -0.29026857 -0.22687513 -0.26714337 -0.71659976 0.65210116 0.44298723 0.30984479 0.005114438 -0.66145992 0.047443241 -0.26110139 -0.26700321 0.88679099 0.07458815
part 0.057875901 -0.23933347 -0.18161635 -0.22703412 -0.67180306 0.64132833 0.46440101 0.2615996 0.0094559062 -0.62934619 0.026845369 -0.26535723 -0.25517195 0.78782433 0.031927932
library 0.10193302 -0.29051638 -0.27219287 -0.29411221 -0.86609805 0.71449548 0.54577541 0.33238125 0.043592885 -0.74154699 0.031552967 -0.34102473 -0.35228005 1.0497746 0.10649744
work 0.10725665 -0.24359319 -0.20434372 -0.26174214 -0.65643984 0.63953239 0.44462746 0.28918567 0.022639658 -0.59720129 0.051177252 -0.24377462 -0.26802525 0.82623351 0.047035653
parameter 0.061499294 -0.2642822 -0.23656531 -0.24410501 -0.79420495 0.68837416 0.54798752 0.27394032 0.027907789 -0.72386944 0.0003708608 -0.29056793 -0.35057488 0.92930871 0.057014309
equation 0.053309884 -0.25651503 -0.24165747 -0.23146395 -0.70262694 0.63444114 0.46886185 0.25926962 0.056776814 -0.63141721 0.053347982 -0.25421846 -0.26627278 0.81024951 0.05349239
mpld3 0.085669123 -0.28973567 -0.2095429 -0.3092317 -0.76715994 0.63639826 0.50860554 0.30917463 0.031346362 -0.66097677 0.027675781 -0.30008936 -0.318454 0.87605566 0.06361381
save 0.055611446 -0.20742814 -0.13231543 -0.19577998 -0.56629914 0.46503797 0.32194957 0.25686654 0.0088685462 -0.48677585 0.021529358 -0.17724109 -0.19815908 0.61437023 0.091706067
properties 0.073774859 -0.25195682 -0.23948261 -0.2424058 -0.69923508 0.60517675 0.4688623 0.28588691 0.033032246 -0.63486689 0.036113244 -0.26444903 -0.26972294 0.77610373 0.077958159
dataset 0.041868713 -0.23506932 -0.22804295 -0.23649479 -0.76531065 0.68022633 0.53476322 0.32151759 0.036522038 -0.62823021 -0.0096478872 -0.26626235 -0.30207565 0.89637947 0.097138822
timeseries 0.084151968 -0.16748813 -0.1725553 -0.21153992 -0.62106371 0.47613201 0.43957371 0.23970647 -0.015242532 -0.48454556 0.04302115 -0.17701721 -0.22547093 0.65030026 0.013668101
nan 0.061701145 -0.20191255 -0.16557744 -0.18623346 -0.63873434 0.54272974 0.42339933 0.22333999 -0.010362266 -0.55845881 0.0049357768 -0.22764999 -0.28031912 0.73611933 0.051688988
dataframes 0.10672186 -0.19611378 -0.17801391 -0.1952889 -0.58105052 0.46340749 0.36062226 0.17750284 -0.011042735 -0.44236299 0.050623827 -0.17255095 -0.23879424 0.61198932 -0.0026971789
region 0.10353323 -0.24271795 -0.19975892 -0.19362083 -0.69942951 0.6079188 0.46897715 0.25441253 0.047343113 -0.5843128 0.013728877 -0.21147648 -0.27965528 0.82686132 0.073690474
changes 0.082020588 -0.26613832 -0.25210646 -0.25379172 -0.76374984 0.64508337 0.4985413 0.27737024 0.043544658 -0.63399541 0.029409533 -0.27282643 -0.30625513 0.83288604 0.095966525
plt.show 0.085262917 -0.20612371 -0.14282835 -0.23249365 -0.59519231 0.49913454 0.3881093 0.22071272 0.0079653542 -0.53108948 0.0041214605 -0.23885888 -0.19540282 0.72420597 0.068120837
probability 0.032066472 -0.19928457 -0.21252884 -0.19651955 -0.61394233 0.5709821 0.41964343 0.20921028 0.056521405 -0.53223199 -0.021048369 -0.19252057 -0.24873473 0.70676774 0.037764564
aspect 0.01688345 -0.21335645 -0.25486389 -0.18551642 -0.66794562 0.6153627 0.51642138 0.30668563 0.060715027 -0.59030324 -0.066188551 -0.25456879 -0.2854532 0.76806182 0.066324107
pixels 0.057678729 -0.24078795 -0.17202155 -0.20785283 -0.61056328 0.50353223 0.3619118 0.21652554 0.053287216 -0.51855111 -0.011323352 -0.18076046 -0.231333 0.68762296 0.061163269
fonts 0.060284872 -0.24083482 -0.22464335 -0.24224882 -0.73475713 0.61235994 0.47643209 0.30631983 0.044987477 -0.64333099 0.043802496 -0.23852006 -0.25556859 0.83477229 0.060774293
marks 0.13686433 -0.18706891 -0.27510586 -0.23607203 -0.75781316 0.61290091 0.51532704 0.27880594 -0.020238634 -0.63785076 -0.013276887 -0.22637592 -0.23335463 0.75397462 0.094056629
animate 0.026759168 -0.22968438 -0.19352746 -0.16735502 -0.59800315 0.4965598 0.38739562 0.21182805 0.042843439 -0.5016911 0.039577249 -0.21382953 -0.25540435 0.65654963 0.081445001
installation 0.056087583 -0.25586185 -0.16556588 -0.25323266 -0.67561561 0.56283492 0.42849439 0.23856589 0.05433958 -0.55812323 0.031764407 -0.27219561 -0.30621362 0.80720061 0.051494308
limit 0.05512571 -0.23881321 -0.24677172 -0.22012958 -0.70463109 0.57971138 0.46021235 0.26231021 0.012544588 -0.61539358 -0.017520579 -0.23750848 -0.2883344 0.77017033 0.020297779
candlestick 0.056589369 -0.20987032 -0.23042645 -0.1828205 -0.64960432 0.51436758 0.43815011 0.19651623 0.0078043961 -0.51870739 0.0070931343 -0.22429334 -0.24855644 0.70192713 0.04901316
events 0.097887814 -0.26308593 -0.16366595 -0.27994329 -0.6686427 0.55895591 0.41515073 0.23014906 0.049543902 -0.58336192 0.048084527 -0.19875103 -0.24061561 0.7461828 0.056460921
click 0.10936883 -0.26262888 -0.22816144 -0.20326324 -0.65631604 0.62242693 0.44314459 0.28800029 0.008745078 -0.61660737 0.0029456469 -0.21767922 -0.27660048 0.776721 0.053934675
twinx 0.032019433 -0.22173011 -0.17643881 -0.19205135 -0.53885639 0.53053218 0.41460213 0.2554321 -0.017647464 -0.50749052 -0.013471117 -0.18712112 -0.2372871 0.64975691 0.075408846
cell 0.10290181 -0.35351473 -0.21062827 -0.4022432 -0.65294892 0.58939755 0.42083514 0.26521233 0.02516049 -0.64704573 0.087584689 -0.26261842 -0.2284739 0.93050593 0.15246086
formatting 0.063189536 -0.16751859 -0.22143315 -0.17656095 -0.61526453 0.53317058 0.39216569 0.24023364 0.02241233 -0.53094381 -0.010007319 -0.18700308 -0.19485934 0.65540761 0.016007515
step 0.078339614 -0.14961074 -0.17996991 -0.13549408 -0.51622355 0.45492971 0.33419538 0.15763225 0.0095576858 -0.46561682 0.031846572 -0.20164298 -0.22085069 0.58610398 0.02169635
pixel 0.029736299 -0.24344058 -0.19214664 -0.19821239 -0.70499742 0.58613056 0.49335048 0.22535948 0.024137789 -0.57769787 -0.0037822968 -0.2544513 -0.25808811 0.77180839 0.026995925
control 0.083014913 -0.2486732 -0.22775783 -0.25560012 -0.68630463 0.60442233 0.45514536 0.24997354 0.015002061 -0.55963647 0.017796002 -0.24651597 -0.23145503 0.74453217 0.033395343
pyinstaller 0.095819697 -0.28661653 -0.18414673 -0.31445441 -0.70336735 0.60133445 0.44820166 0.29210556 -0.0041288845 -0.58539599 0.036109466 -0.27725899 -0.2711049 0.8690328 0.086659126
user 0.046975572 -0.2232182 -0.23074214 -0.22307938 -0.66053241 0.62120724 0.41887856 0.25520653 0.035040375 -0.5948683 0.027570484 -0.22527944 -0.29898474 0.78857005 0.06665317
fails 0.11238075 -0.29603422 -0.22558865 -0.29702801 -0.83653069 0.72766912 0.55605501 0.33878109 0.026445821 -0.72860974 0.027821094 -0.33194789 -0.34187815 0.979406 0.057559971
opencv 0.071308985 -0.26742214 -0.21481569 -0.25431639 -0.69377196 0.60754693 0.45176715 0.30199385 0.049250022 -0.637712 0.041970346 -0.28397799 -0.25304431 0.82749933 0.081218094
environment 0.077836886 -0.25179014 -0.23312491 -0.24625446 -0.64903122 0.62699443 0.41653624 0.24845082 0.073874012 -0.57186735 0.046125617 -0.2552565 -0.24555288 0.85669845 0.11457374
different 0.085835442 -0.14047806 -0.17647976 -0.18480068 -0.57019287 0.47056967 0.3966735 0.19347128 -0.0039653005 -0.49004227 -0.0073519759 -0.20426975 -0.18259604 0.60127103 0.014427877
barchart 0.080681242 -0.18308316 -0.17849268 -0.1780937 -0.61229658 0.50486833 0.42702267 0.24022509 0.022379933 -0.5252288 0.0076926798 -0.20260172 -0.21775831 0.70805258 0.092542589
equivalent 0.08741755 -0.28014234 -0.21352625 -0.26268852 -0.7902686 0.72048604 0.51542062 0.34046346 0.0075475913 -0.71067864 0.0017701593 -0.27171358 -0.31344762 0.95727634 0.10811809
transparency 0.077015959 -0.19830504 -0.2066277 -0.18441872 -0.61602968 0.53134006 0.44273528 0.25328135 0.038885642 -0.54628217 0.018686429 -0.22289915 -0.21703507 0.739142 0.047934197
> 0.062217735 -0.29281795 -0.1951241 -0.34332362 -0.80261499 0.6837464 0.51283628 0.33722857 0.039455961 -0.69168019 0.039487258 -0.31640443 -0.34555465 0.94495803 0.130046
xaxis 0.11137848 -0.1849672 -0.19226965 -0.21856958 -0.62405473 0.55326265 0.44105363 0.22722425 -0.0016139281 -0.55936968 -0.011303374 -0.20409039 -0.24497277 0.71886152 0.016491406
html 0.089452215 -0.24282131 -0.18915525 -0.3180896 -0.68280828 0.56537521 0.41132522 0.29008648 0.03383033 -0.54338777 0.046139475 -0.22470044 -0.23212782 0.84380901 0.10747063
offset 0.044512399 -0.15622148 -0.14553989 -0.12169878 -0.47333896 0.39580333 0.35851711 0.20150611 0.034287263 -0.42663771 -0.023892002 -0.13708141 -0.2046288 0.54414415 0.065334015
hexbin 0.048443936 -0.23553234 -0.22295962 -0.19599678 -0.60620409 0.51495731 0.42729697 0.21207705 0.040858477 -0.51755005 0.0057408335 -0.21857914 -0.28188321 0.72419775 0.069838844
bug 0.032540545 -0.2128184 -0.23822513 -0.2419311 -0.70263535 0.58208525 0.44710273 0.28278479 0.025568325 -0.61155933 0.031219469 -0.21156801 -0.28123501 0.79458672 0.050383814
sizes 0.06218864 -0.24934408 -0.14690797 -0.21544477 -0.60635471 0.48747447 0.42878878 0.19535854 0.0013885276 -0.54234463 0.030682687 -0.19486301 -0.24228363 0.71718061 0.0380482
count 0.073631525 -0.18690196 -0.1816967 -0.19302237 -0.71421951 0.58264095 0.45870617 0.22610496 -0.019726392 -0.58517778 0.041942414 -0.21089485 -0.26073301 0.75544626 0.021193244
mean 0.094004534 -0.25306007 -0.18998682 -0.2300092 -0.63894981 0.55468738 0.41214335 0.22244696 0.019522211 -0.57745135 0.0019712418 -0.24272785 -0.24028611 0.7430684 0.036728173
scales 0.090298399 -0.13458291 -0.14813392 -0.15990029 -0.48605052 0.39042941 0.36673343 0.21372502 0.02834766 -0.43370521 0.0091192201 -0.15316102 -0.1965024 0.52597398 0.053506985
overlay 0.04849413 -0.18257828 -0.19603983 -0.22120817 -0.59123302 0.51796603 0.35412726 0.25646639 0.026548946 -0.51500893 -0.019056104 -0.17787494 -0.21552496 0.67714059 0.048219543
hist 0.087731659 -0.22751772 -0.22435047 -0.21145925 -0.62005907 0.57804573 0.40565252 0.22794208 0.056553274 -0.53987467 0.020449078 -0.20382935 -0.26293942 0.71236086 0.033039577
nodes 0.10307118 -0.27857661 -0.20620558 -0.23117456 -0.73118943 0.59824008 0.44135368 0.26563972 0.021277551 -0.60995096 -0.0096456269 -0.2310608 -0.2778888 0.76473463 0.10364928
center 0.09209884 -0.20230962 -0.21420594 -0.17602216 -0.63512909 0.5346784 0.40302244 0.25571048 0.013284199 -0.54895431 -0.0039121015 -0.24316861 -0.25135285 0.70506436 0.052419238
errorbar 0.083109818 -0.21582246 -0.17215674 -0.17478986 -0.57321471 0.50730872 0.38590556 0.21516442 0.036550377 -0.48320964 0.01540348 -0.2141427 -0.200175 0.64145356 0.053415276
visualization 0.034546122 -0.20792811 -0.15339448 -0.19202481 -0.57928902 0.48881263 0.40535805 0.24279849 0.051280979 -0.46216521 0.026500283 -0.2211144 -0.22368182 0.65072751 0.050525349
frames 0.083719708 -0.19653071 -0.18428016 -0.15997019 -0.5658679 0.5071069 0.33830765 0.1839481 0.023361757 -0.49972919 0.0014238984 -0.18899839 -0.22169255 0.61809903 0.063962214
random 0.032229707 -0.2427562 -0.18529427 -0.26621965 -0.68559861 0.63191098 0.4437604 0.26120245 0.037685085 -0.56925756 0.043405205 -0.26693615 -0.29781574 0.79069054 0.05595364
arrows 0.035508841 -0.24356174 -0.18673432 -0.2015325 -0.66677004 0.60969949 0.45565051 0.29061729 0.020445291 -0.5767749 0.020257108 -0.20556051 -0.26532945 0.76076412 0.057118278
vectors 0.039460823 -0.25791371 -0.20018186 -0.21860379 -0.67084843 0.54999858 0.41748223 0.2702781 0.062860042 -0.58663535 0.0019045768 -0.23242673 -0.29325935 0.70855212 0.050877985
= 0.087225169 -0.28671038 -0.22207488 -0.2516208 -0.81744707 0.72394091 0.52743608 0.30965722 0.047383778 -0.71952105 0.0062741023 -0.29831192 -0.3501325 0.92604285 0.087607935
animations 0.086370535 -0.19713508 -0.16887297 -0.25010026 -0.61182851 0.53605622 0.41707307 0.25151423 0.033943456 -0.51590991 0.053377829 -0.22286597 -0.21262579 0.68491936 0.042258497
system 0.063078806 -0.23999019 -0.18869735 -0.28137997 -0.71637619 0.61958522 0.41932717 0.24188285 0.024584807 -0.58490747 -0.0054554567 -0.28152481 -0.31658819 0.82182759 0.059948836
r 0.07017301 -0.26297474 -0.25084248 -0.28740183 -0.78331965 0.6666562 0.52482742 0.31381279 0.052823775 -0.66797888 0.030534029 -0.2512916 -0.28559214 0.90478516 0.099734209
alpha 0.072949171 -0.18836485 -0.22845638 -0.17792138 -0.63926303 0.52661109 0.39823866 0.23565078 0.036576524 -0.55984008 0.024314316 -0.19149692 -0.24526152 0.72821254 0.062389594
matplolib 0.053470291 -0.17175746 -0.16573739 -0.20593654 -0.50790703 0.4579877 0.34901235 0.21780106 -0.010358249 -0.41443989 0.035762846 -0.19987343 -0.20144919 0.61683559 0.038744275
bottom 0.099812493 -0.14903228 -0.18168053 -0.19097134 -0.59995902 0.47552243 0.35854259 0.23451857 0.028282329 -0.48006204 0.027238294 -0.20133327 -0.19758137 0.68394274 0.030670302
streamplot 0.069987901 -0.24017483 -0.13992709 -0.18840021 -0.54341626 0.53494716 0.35529119 0.19563678 0.047708113 -0.49450216 -0.01507302 -0.18859224 -0.22799297 0.68515462 0.027950315
titles 0.064507402 -0.21104915 -0.19804856 -0.21475311 -0.62788272 0.55907243 0.4487749 0.26487547 0.03019478 -0.53644091 0.0090742586 -0.23955038 -0.23968911 0.67806053 0.070089541
behavior 0.031399854 -0.23733811 -0.18668094 -0.21167478 -0.65107125 0.54804075 0.42708179 0.23832327 0.037882879 -0.58352196 0.041428249 -0.22696751 -0.23895743 0.74092644 0.03180613
cursor 0.057552177 -0.23753461 -0.21961392 -0.22400978 -0.62974298 0.5728628 0.41839162 0.25694606 0.01947616 -0.53666329 0.035349816 -0.23457474 -0.25976443 0.74390328 0.037864171
trouble 0.056498952 -0.16034016 -0.12901415 -0.14777824 -0.52927405 0.48761827 0.40482351 0.22382903 0.013966731 -0.44436118 0.023538787 -0.19912331 -0.1852819 0.64139742 0.030296013
times 0.10809604 -0.25626954 -0.18159337 -0.26757848 -0.63783169 0.52143693 0.41229916 0.23795052 0.015872918 -0.57561356 0.020238249 -0.25028479 -0.27967751 0.72406918 0.05080241
colormaps 0.072222181 -0.20438196 -0.15187334 -0.19533579 -0.54879665 0.50728834 0.38886219 0.19513527 0.025054442 -0.50007951 -0.019745491 -0.2031426 -0.24603066 0.64347106 0.034122419
symbol 0.11032777 -0.28554609 -0.19020939 -0.28551027 -0.69229364 0.63948989 0.51495039 0.27133682 0.050961833 -0.61244559 0.045033958 -0.24850406 -0.27788946 0.81353652 0.067908742
end 0.076309629 -0.16620003 -0.21796653 -0.21940345 -0.61743879 0.53082305 0.39074621 0.20334859 0.028740015 -0.54337353 -0.0094974358 -0.19289955 -0.26125497 0.66354895 0.04824347
directory 0.068768404 -0.23329097 -0.21298516 -0.2707144 -0.66005111 0.52322447 0.40540799 0.26823339 0.0017857098 -0.55455089 0.02601541 -0.19358803 -0.27229661 0.72639316 0.054333795
model 0.05642866 -0.23547094 -0.19577384 -0.30603305 -0.72963101 0.67487985 0.47816983 0.27429172 0.013294897 -0.62238318 0.034021076 -0.26983592 -0.27504364 0.90236247 0.074477702
screen 0.074367061 -0.20902158 -0.20941716 -0.21834865 -0.59078264 0.49025401 0.37058279 0.21129186 0.043659762 -0.50310159 0.0019027914 -0.22016318 -0.24079196 0.64972359 0.031448979
facetgrid 0.055061549 -0.17574319 -0.18506914 -0.23224378 -0.64212036 0.47184071 0.42124039 0.25351071 0.020077964 -0.4941338 -0.0010973454 -0.18819998 -0.20531425 0.66850883 0.011741754
server 0.055290274 -0.24111378 -0.23978376 -0.27247486 -0.71527624 0.63111651 0.47277552 0.27825043 0.024677437 -0.59049296 0.015703691 -0.27378443 -0.27815375 0.85954863 0.074178666
virtualenv 0.065603703 -0.20871982 -0.12979211 -0.22423577 -0.58779776 0.50768638 0.35240349 0.21026528 0.043084752 -0.49107671 0.0516208 -0.22736041 -0.25410256 0.70950246 0.086442553
plot_surface 0.063186198 -0.17643982 -0.17001188 -0.14683607 -0.48377261 0.39983937 0.33100691 0.21061052 -0.01573357 -0.4454363 0.0025217873 -0.18283908 -0.17677201 0.52443379 0.03481194
picture 0.086933509 -0.23835866 -0.18837604 -0.18508844 -0.58216959 0.52466065 0.37820327 0.21827513 -0.0096736532 -0.48272359 0.0090354402 -0.18473226 -0.19874243 0.65038943 0.056687564
alignment 0.039717581 -0.13020478 -0.19709058 -0.16473658 -0.55001384 0.47820252 0.36097139 0.20969462 -0.023720399 -0.41685858 -0.019277165 -0.15650851 -0.2014817 0.55235982 0.025556628
load 0.026184488 -0.27376437 -0.17768681 -0.28368416 -0.6128127 0.58215296 0.44655001 0.21911921 0.039899118 -0.5412299 0.025635995 -0.29894537 -0.24298708 0.84198987 0.12222854
errorbars 0.065620087 -0.17863455 -0.13835062 -0.12885317 -0.46953267 0.43002892 0.31067547 0.16270125 -0.012903189 -0.39670661 0.022557419 -0.17126 -0.18073 0.53524262 0.031278782
graphics 0.080311961 -0.24420346 -0.15297234 -0.22283605 -0.60864437 0.47746602 0.43395051 0.22755612 0.050236307 -0.52477962 0.083263472 -0.23986337 -0.25408348 0.73440278 0.064699471
level 0.069219857 -0.20153022 -0.1912218 -0.22308277 -0.60964429 0.57746601 0.45277876 0.21810979 0.05450869 -0.51856339 -0.010312754 -0.22256888 -0.25262523 0.70370519 0.031262748
align 0.027852159 -0.13242096 -0.14399795 -0.15515573 -0.46105549 0.40630677 0.33841673 0.19777435 0.031207792 -0.44354415 0.027354304 -0.16068467 -0.15523639 0.5511322 0.068613723
xlim 0.056556381 -0.21947552 -0.17760009 -0.21978091 -0.5945614 0.50685304 0.41596237 0.19939859 0.016697939 -0.5096916 -0.0085536363 -0.22745544 -0.22812016 0.66259718 0.039213154
rotation 0.078685328 -0.14242698 -0.20420051 -0.18610878 -0.52259719 0.46051732 0.34687862 0.1777491 0.0041578324 -0.46633834 0.027605873 -0.19831197 -0.22115718 0.59478098 0.030247269
instance 0.085418761 -0.1876954 -0.19105749 -0.23586698 -0.61521262 0.52043855 0.40852791 0.2276272 -0.011260183 -0.53803593 0.046110101 -0.19099507 -0.27759618 0.70723337 0.045410715
field 0.043123104 -0.21367899 -0.16399124 -0.1930816 -0.61205804 0.52300268 0.39373034 0.2731359 0.024215257 -0.52875948 -0.0052832533 -0.20771369 -0.2288907 0.73474735 0.051577196
bokeh 0.038683776 -0.15288208 -0.19060719 -0.16376758 -0.51888585 0.42396474 0.34365892 0.20343387 0.036288518 -0.43206057 -0.024163045 -0.17470412 -0.21231344 0.60508204 0.016300544
force 0.054018971 -0.15051194 -0.17167051 -0.18597625 -0.45496035 0.41532138 0.32076865 0.1774977 0.02616304 -0.41129425 0.022038313 -0.16166703 -0.17348462 0.58983719 0.022454767
timestamp 0.097627461 -0.17379373 -0.21270689 -0.17793807 -0.6035639 0.47993204 0.40817666 0.23177627 -0.0087620355 -0.48440382 0.001893817 -0.23119323 -0.21912609 0.65257561 0.031872507
year 0.050484471 -0.16914022 -0.18556415 -0.22455591 -0.60755301 0.51401478 0.40311432 0.21540926 -0.010000231 -0.51031065 0.019593056 -0.23442116 -0.25683996 0.67678875 0.027705112
matplotlib.animation 0.031554915 -0.12652519 -0.15324496 -0.17081253 -0.41148376 0.34825969 0.25566941 0.15690838 0.017884297 -0.3271111 -0.022728704 -0.12136014 -0.15361273 0.51557726 0.038354706
margins 0.04432651 -0.11693258 -0.12600206 -0.16275041 -0.46918505 0.41779852 0.33178166 0.1451003 -0.018477339 -0.41137928 0.0098451367 -0.17437038 -0.16609988 0.527978 0.026707252
move 0.027707877 -0.17586653 -0.13472357 -0.16940154 -0.55892485 0.42653731 0.3379226 0.22949305 0.028710412 -0.48797119 0.034290489 -0.19510943 -0.16513975 0.60384947 0.044575114
plt 0.070460446 -0.2588838 -0.12598179 -0.28864273 -0.49373642 0.47235858 0.36763769 0.18177156 -0.011024388 -0.45129123 0.0090639591 -0.18987155 -0.24987499 0.71169657 0.07996536
transparent 0.046450727 -0.18909289 -0.13084117 -0.20517775 -0.56179851 0.47268373 0.32893789 0.223985 0.0085297218 -0.48405629 0.0040741647 -0.17936957 -0.2109483 0.6263395 0.062718533
sequence 0.033204023 -0.21519428 -0.14192861 -0.19421414 -0.53609663 0.46302179 0.36649102 0.20221846 -0.0059327278 -0.4698061 0.043645229 -0.19498906 -0.22725517 0.6378473 0.044162557
colorbars 0.046404105 -0.10831717 -0.10364448 -0.13386439 -0.36579293 0.35334241 0.26232517 0.13094011 0.031559959 -0.34111735 -0.00058226188 -0.14133441 -0.130686 0.45172736 0.028204316
polar 0.088383794 -0.15176661 -0.18363944 -0.17072105 -0.56252933 0.44783771 0.39479712 0.2241369 0.04943677 -0.50229514 -0.013645206 -0.1734726 -0.20808934 0.62193131 0.031701058
axes3d 0.029439872 -0.19874266 -0.15402886 -0.18138307 -0.52351522 0.44405574 0.31380075 0.19507389 0.020879095 -0.43253189 0.02503459 -0.15073378 -0.23754625 0.60225838 0.071997188
shapefile 0.066535614 -0.18317881 -0.13490489 -0.15565979 -0.5092302 0.42529994 0.33108312 0.19455487 0.0072686677 -0.4376511 0.035705879 -0.15815653 -0.21734817 0.60767698 0.072221205
indices 0.069097422 -0.22086263 -0.19370854 -0.15425569 -0.52742094 0.51171905 0.38944593 0.21096975 0.017079115 -0.44573048 -0.013543884 -0.21627137 -0.23184898 0.60208774 0.042370282
element 0.065186895 -0.19268508 -0.15425947 -0.17981002 -0.54889226 0.49228829 0.35148561 0.22802809 0.027710769 -0.47645807 0.016388901 -0.18414859 -0.18067552 0.61038268 0.058143456
page 0.066950031 -0.2007159 -0.15104775 -0.23130801 -0.58683664 0.50317049 0.35729876 0.27601722 -0.020671094 -0.45778051 0.0067172921 -0.22259481 -0.24242999 0.63265318 0.048056819
dots 0.08186423 -0.1488224 -0.15817688 -0.17271373 -0.54023111 0.45906278 0.35125524 0.16218753 -0.011201543 -0.4728035 0.014998144 -0.20643124 -0.21560068 0.62353724 0.04071743
plane 0.045965854 -0.18690942 -0.16228545 -0.17637342 -0.49598244 0.41314399 0.33427155 0.2121481 0.023228304 -0.39616337 0.028747505 -0.1597988 -0.16684525 0.59084094 0.036295477
place 0.043582521 -0.18057604 -0.11709426 -0.18681549 -0.50519383 0.37690118 0.31074688 0.20544663 0.0072298325 -0.43215534 0.038278572 -0.17769434 -0.18508805 0.55903721 0.047083579
xtick 0.048092127 -0.13606054 -0.1729026 -0.19023077 -0.51977962 0.44202441 0.38152796 0.1743602 -0.023879904 -0.43949127 -0.036080983 -0.15078388 -0.19711341 0.60960257 0.055743512
modules 0.046216357 -0.21689211 -0.18306288 -0.28040728 -0.59849668 0.51838428 0.38490799 0.24096735 0.032905854 -0.57476234 0.051580779 -0.27536601 -0.23246822 0.73077285 0.10572459
access 0.049400739 -0.20012864 -0.1538879 -0.19872215 -0.58733034 0.51490444 0.38817698 0.2526347 0.039763574 -0.54839718 0.054598678 -0.24770446 -0.23583564 0.72058266 0.054697622
ylim 0.076667897 -0.21172893 -0.13166909 -0.15945798 -0.58439666 0.46107754 0.35663068 0.24200167 0.0446488 -0.45462549 0.052112874 -0.19958504 -0.19836025 0.64305979 0.014713442
datasets 0.045680344 -0.19888601 -0.18393764 -0.19755518 -0.48356628 0.46271193 0.33406049 0.1852895 0.018878778 -0.41328472 -0.015070633 -0.19427657 -0.16999631 0.56845635 0.068949312
intervals 0.030205579 -0.1472473 -0.12145122 -0.19122037 -0.49773628 0.39883631 0.33232072 0.18661231 0.044316806 -0.43152353 0.014320605 -0.20078604 -0.1626491 0.52065724 0.063789062
fill_between 0.054720327 -0.14519495 -0.12310527 -0.15620565 -0.44845331 0.3666048 0.25172508 0.16488233 -0.022800485 -0.34771311 -0.029271664 -0.15329607 -0.13893376 0.49385414 0.01103996
runtimeerror 0.060574777 -0.22454624 -0.1839774 -0.28835294 -0.7002086 0.62048453 0.44437775 0.26957601 -0.00049749453 -0.63512248 0.0028920246 -0.29644603 -0.26252705 0.81003433 0.043763921
origin 0.088831156 -0.18692771 -0.17678343 -0.16882612 -0.55129302 0.47581536 0.40501717 0.21630411 0.03218523 -0.47221127 -0.036588497 -0.19029495 -0.22112402 0.64395744 0.016233083
lib 0.038203407 -0.17002405 -0.1648113 -0.14263749 -0.49590605 0.39904115 0.28308934 0.19453707 0.043533523 -0.432515 0.0017927049 -0.16250601 -0.19023824 0.57529485 0.065803379
artist 0.046851262 -0.24057442 -0.20519055 -0.1826984 -0.65217561 0.54389739 0.40385616 0.23642753 0.035387389 -0.5199858 -0.021120979 -0.18988213 -0.23702954 0.6908986 0.045408115
returns 0.041218579 -0.20786259 -0.20049454 -0.24634245 -0.65353096 0.51585239 0.41562235 0.24179024 0.0072501316 -0.53636348 0.0022732159 -0.19657534 -0.22403206 0.74352175 0.042520288
analysis 0.039803382 -0.25188583 -0.17781511 -0.24129313 -0.59458375 0.5772205 0.39723533 0.22822388 0.036710337 -0.55232924 0.042980853 -0.23091865 -0.29237297 0.76081306 0.072278261
groups 0.089357615 -0.14424489 -0.16494872 -0.19981776 -0.5138545 0.45361924 0.33058453 0.18738297 0.021131808 -0.45593816 -0.0042581134 -0.19607507 -0.18825512 0.5961172 0.056942511
maps 0.080463514 -0.27102011 -0.25116649 -0.23458079 -0.64944094 0.58494586 0.44213003 0.25769129 0.010637392 -0.58910656 0.020282455 -0.2150465 -0.26927638 0.75647235 0.031890582
day 0.090580106 -0.20707399 -0.2245035 -0.20049787 -0.56209105 0.50289369 0.41044125 0.18734285 0.012133033 -0.50128734 0.021091931 -0.19635484 -0.22410367 0.65301484 0.025364669
indexerror 0.06497629 -0.17667924 -0.13320377 -0.1718329 -0.51889426 0.43948555 0.33785608 0.18256821 0.04118523 -0.42959759 0.029393921 -0.20439212 -0.21242048 0.51568478 0.024170687
share 0.064910032 -0.11570123 -0.14139107 -0.13161267 -0.44253808 0.38486597 0.3043184 0.1495389 0.0072136666 -0.39821899 -0.0029788183 -0.1665297 -0.13785037 0.52793521 0.058549792
ticklabels 0.024116175 -0.2076212 -0.14586581 -0.21396482 -0.59658813 0.48199067 0.36950117 0.22179478 -0.0062989513 -0.4984211 -0.0045570647 -0.18155991 -0.22514744 0.61943698 0.080775067
layout 0.086828023 -0.14821939 -0.10106414 -0.16085364 -0.43970028 0.39585194 0.29548395 0.17849818 0.02110352 -0.42547294 0.026007051 -0.17666487 -0.19010678 0.54808295 0.071877912
information 0.03356624 -0.16503844 -0.13963972 -0.1535113 -0.51988518 0.41126534 0.35285202 0.22501318 0.03211771 -0.41644058 0.024534579 -0.14434263 -0.21335325 0.55195069 0.05879695
units 0.031701736 -0.20685031 -0.14404628 -0.21093716 -0.52994335 0.45103613 0.36343575 0.22438438 0.03656983 -0.50914264 0.028881466 -0.21065079 -0.22923887 0.62855655 0.022316018
navigation 0.041507199 -0.16189599 -0.167081 -0.21222773 -0.5671348 0.48328653 0.36663261 0.23071672 0.045546446 -0.44317779 -0.0066987784 -0.18404001 -0.24489433 0.65438366 0.0082798321
cells 0.09057112 -0.22960028 -0.13561253 -0.22757907 -0.50584304 0.41985679 0.35034782 0.22258453 0.031122757 -0.48358753 0.034280591 -0.16700421 -0.1941423 0.6147455 0.076951675
linux 0.027669569 -0.19317923 -0.19840677 -0.24673702 -0.62210017 0.50776398 0.36441687 0.24526533 0.039468445 -0.50118935 0.028796921 -0.23679906 -0.22532885 0.71144599 0.044982444
boundaries 0.050156094 -0.15538456 -0.15545161 -0.15732853 -0.50606555 0.46887192 0.34991738 0.17470211 0.036795456 -0.45454127 -0.026922839 -0.19283299 -0.19899811 0.62608743 0.078856573
polygons 0.060408447 -0.15137777 -0.15971813 -0.16672559 -0.50811666 0.38811037 0.3299633 0.17380744 0.032697901 -0.39547271 -0.01940877 -0.15836476 -0.22684081 0.5641278 0.060766127
need 0.035344735 -0.20523536 -0.16643232 -0.20929483 -0.58562773 0.46188161 0.34703019 0.22716522 -0.007396685 -0.45578149 0.039444603 -0.17956251 -0.23289944 0.64205301 0.023764215
matshow 0.019599728 -0.14120021 -0.16466811 -0.18997382 -0.44231907 0.36875862 0.27545512 0.19694224 -0.0051413635 -0.40966421 -0.023078844 -0.13247505 -0.16050597 0.51145953 0.028928328
names 0.043971118 -0.17701724 -0.16322066 -0.19060764 -0.64182216 0.47961333 0.39315107 0.24605012 0.027925506 -0.48045489 0.040431619 -0.19830918 -0.254868 0.67837292 0.015754974
scaling 0.05814752 -0.14173222 -0.16658993 -0.1639293 -0.56518829 0.43866178 0.37672836 0.2302278 0.037631024 -0.50297481 0.021436807 -0.18563941 -0.23336324 0.62078851 0.04844198
max 0.043780297 -0.18212216 -0.21155791 -0.19894987 -0.57906508 0.5128535 0.41077957 0.21069521 0.034544006 -0.51990122 0.015783025 -0.17929803 -0.20849012 0.72011912 0.022380175
crashes 0.052026384 -0.19444588 -0.15314284 -0.23036006 -0.43756023 0.4169085 0.3061637 0.19279273 -0.0079039941 -0.38208517 0.053592574 -0.18546873 -0.19674061 0.57755274 0.031527136
cycle 0.024302475 -0.15869623 -0.16366853 -0.17037004 -0.48692456 0.36857709 0.34346557 0.14128506 0.03007859 -0.37547082 0.0073293182 -0.15601049 -0.1948823 0.54591793 0.046293743
panel 0.040041521 -0.16952889 -0.13854402 -0.19294809 -0.42076707 0.38228837 0.26582438 0.18506211 0.035577524 -0.3847363 0.039098226 -0.17040153 -0.1364547 0.5236401 0.021477299
spectrogram 0.029432792 -0.18658027 -0.14468819 -0.19228549 -0.43774679 0.44083077 0.32874864 0.18852071 0.0052942545 -0.42400882 -0.010523791 -0.16096523 -0.21174757 0.52986014 0.06619224
intersection 0.060335904 -0.14354873 -0.14452775 -0.14619695 -0.42927554 0.41110632 0.29168057 0.1974867 0.031459417 -0.37129346 0.023167677 -0.18242796 -0.20966829 0.5289796 0.035064843
thread 0.060172159 -0.17300889 -0.12872764 -0.21712422 -0.57468313 0.47379035 0.33549452 0.22547069 -0.01330182 -0.48856953 -0.0087061953 -0.18393055 -0.20273012 0.62579072 0.049289931
palette 0.078295328 -0.1872949 -0.1836502 -0.1579805 -0.51974589 0.4408955 0.32244724 0.17558284 0.020498773 -0.46930936 0.0057126284 -0.16087109 -0.18860486 0.61559713 0.030278604
using 0.026113564 -0.15858006 -0.15403992 -0.20293026 -0.51106936 0.42605177 0.33655375 0.20909667 0.038518868 -0.44422096 0.00071489409 -0.19840236 -0.2372544 0.60587913 0.034546759
call 0.070534021 -0.17485957 -0.15384552 -0.22323041 -0.52235049 0.4744018 0.37338307 0.20582147 -0.017684763 -0.45180413 0.044927858 -0.18833001 -0.24398401 0.63608646 0.044017155
return 0.037707914 -0.18931708 -0.14099415 -0.19982706 -0.55278009 0.46059069 0.35529581 0.24916996 0.018479548 -0.50236523 0.0067273462 -0.18296883 -0.22115295 0.67251462 0.0095467987
app 0.081200659 -0.20068796 -0.17348485 -0.2506645 -0.64181966 0.54848689 0.42341298 0.24034344 0.00060128683 -0.52514344 -0.0056287008 -0.20490324 -0.28052285 0.74307394 0.080082789
video 0.08772935 -0.23468606 -0.18859766 -0.24210411 -0.54467696 0.50335097 0.34730914 0.21515286 0.028969634 -0.49299076 0.056743555 -0.16756174 -0.2302641 0.66263449 0.081200354
svg 0.038255971 -0.22308743 -0.14836575 -0.17682248 -0.49190721 0.40767288 0.2979086 0.20930304 0.016214732 -0.45876372 0.044613671 -0.16205324 -0.23097733 0.57272214 0.024585394
yaxis 0.063851297 -0.16583909 -0.18865561 -0.16361792 -0.49783856 0.42913714 0.36266333 0.16377999 0.043494318 -0.4823392 0.0031065168 -0.19956361 -0.2298682 0.611467 0.065250322
styles 0.042681132 -0.15265661 -0.14385456 -0.11261754 -0.44241089 0.3873626 0.27111322 0.18559386 0.02081641 -0.3725132 -0.015059697 -0.13996309 -0.20596153 0.49179369 0.044720266
characters 0.058178999 -0.13916443 -0.083707213 -0.12795511 -0.39520973 0.31232932 0.2187252 0.14333124 0.029592313 -0.28245917 0.0035066523 -0.13583969 -0.13736147 0.41663307 0.016160782
increase 0.038479798 -0.20257127 -0.12602092 -0.16625088 -0.50263697 0.46640667 0.35365421 0.17239654 -0.014452237 -0.47701252 0.032838691 -0.1812128 -0.22165327 0.63779008 0.082077995
items 0.079710491 -0.1363429 -0.12517789 -0.18888509 -0.44909129 0.42564279 0.31541085 0.16622248 0.015895981 -0.40271574 -0.017181911 -0.12723954 -0.14812703 0.50959361 0.070160367
hide 0.043252993 -0.16202529 -0.17312969 -0.12031009 -0.47375569 0.3694706 0.31821808 0.17416874 0.018375883 -0.40275046 0.00099722156 -0.14129619 -0.17795449 0.50348002 0.070791788
math 0.044591047 -0.1641634 -0.13828863 -0.19291006 -0.46420142 0.38063031 0.34168094 0.1987792 -0.0013805187 -0.38996547 -0.00046725979 -0.21019717 -0.15836847 0.57205874 0.030496366
py2exe 0.0293203 -0.13250707 -0.14072661 -0.16554902 -0.41021204 0.34539238 0.24113859 0.16469087 0.036883257 -0.33583352 -0.019157922 -0.13002671 -0.18495782 0.46623191 0.033874936
eps 0.080685861 -0.20222802 -0.16692901 -0.20022565 -0.44134206 0.42401043 0.32814512 0.22107409 0.034763392 -0.44578823 -0.014295754 -0.1647075 -0.20454769 0.5346117 0.022721954
console 0.091898188 -0.22375533 -0.094450392 -0.23613396 -0.46754292 0.40368158 0.36455548 0.1738541 0.069977671 -0.41243568 0.087682895 -0.16736601 -0.17350924 0.6102075 0.12070584
positions 0.053736068 -0.18303274 -0.14305897 -0.144301 -0.46993658 0.42635813 0.33922249 0.20961259 -2.0798458e-05 -0.42750859 0.035450462 -0.14372805 -0.18505266 0.5422852 0.075289369
whitespace 0.03210298 -0.18162 -0.13955873 -0.17334448 -0.46233138 0.40613598 0.29406145 0.21832557 0.040762134 -0.3993175 0.042346351 -0.17832147 -0.20421951 0.54126531 0.073534593
right 0.073542759 -0.15183999 -0.16693503 -0.17171243 -0.49853709 0.45419049 0.3741841 0.22913983 0.02890031 -0.44007587 -0.015688587 -0.21048599 -0.18106215 0.60413247 0.04205155
gaps 0.061323278 -0.13860859 -0.15951517 -0.15585503 -0.45080137 0.37017167 0.28417435 0.16719356 -0.023464648 -0.33583769 0.04399132 -0.13131569 -0.1388306 0.47389838 0.057883505
pandas/matplotlib 0.024691617 -0.10576162 -0.15549111 -0.12107839 -0.43975058 0.32087159 0.29174718 0.17048445 0.033868231 -0.32660082 -0.017783945 -0.16494107 -0.18233697 0.43227822 0.049971398
libraries 0.071478762 -0.1793569 -0.13137418 -0.23156728 -0.53228629 0.44332883 0.36510277 0.21996684 0.053133629 -0.48569897 -0.0011388053 -0.20824504 -0.24208578 0.62198198 0.089601442
integer 0.037276115 -0.1209598 -0.15159379 -0.14068465 -0.46862563 0.38550776 0.3426865 0.16415045 0.030373547 -0.37704995 -0.0054067001 -0.17918229 -0.16219059 0.52486718 0.018273473
percentage 0.080927774 -0.14730772 -0.18597239 -0.19373541 -0.52918488 0.48088473 0.3686581 0.18109441 0.028565092 -0.46971655 -0.020615747 -0.15711746 -0.19225642 0.61415911 0.034919966
ranges 0.025508642 -0.11835955 -0.079104781 -0.1073884 -0.38673067 0.3137452 0.24823315 0.12320207 0.042146005 -0.28943175 0.030396616 -0.12302326 -0.10214254 0.41509354 0.055085026
matlibplot 0.0081105838 -0.10177104 -0.1210385 -0.13282669 -0.38112417 0.33410537 0.24280627 0.16298495 -0.018286774 -0.33011541 -0.01315513 -0.091683023 -0.12576649 0.38946676 0.035711043
export 0.071476638 -0.18137614 -0.15085123 -0.13716207 -0.3952392 0.37145206 0.25071606 0.16003382 0.0060535497 -0.36538383 0.0045258198 -0.13240476 -0.17781819 0.50844973 0.030485492
spacing 0.023793805 -0.1654062 -0.17621173 -0.16947408 -0.46250349 0.39076418 0.30909923 0.14808847 -0.001170964 -0.42703643 -0.021529002 -0.14888151 -0.17384513 0.50628304 0.060711946
sympy 0.040829815 -0.22622678 -0.12064277 -0.20230342 -0.49325198 0.44583079 0.35910732 0.16823295 0.031288706 -0.4208684 0.0081863357 -0.16665922 -0.19607526 0.64171922 0.042374726
pca 0.079418972 -0.22280484 -0.1462995 -0.22132446 -0.60401136 0.50514185 0.34729102 0.23125397 0.043850739 -0.50709224 0.006290576 -0.17744271 -0.25526375 0.70618635 0.079497404
dictionary 0.06717933 -0.11016114 -0.11291085 -0.13979422 -0.34727386 0.30199283 0.27381176 0.16179462 -0.020349272 -0.3307068 -0.0028707655 -0.13202021 -0.15716679 0.41982967 0.050334569
keyword 0.082217507 -0.21651137 -0.20485599 -0.23326984 -0.62149727 0.58478773 0.42805153 0.22550635 -0.0094487807 -0.56123108 -0.01585646 -0.20874552 -0.2526944 0.77663904 0.075710446
direction 0.025095388 -0.1457683 -0.16682939 -0.14366059 -0.45410225 0.45118091 0.35032099 0.17724571 0.023855703 -0.44270217 0.0066570551 -0.16469473 -0.20986587 0.5597297 0.050177943
shell 0.087795153 -0.2131944 -0.16432421 -0.26701719 -0.53557813 0.48544988 0.40824321 0.23911686 -0.00237248 -0.51262218 0.057583332 -0.19769181 -0.25475198 0.69512653 0.097457908
iteration 0.028925024 -0.1770636 -0.097205117 -0.15828991 -0.43048549 0.35180968 0.28478581 0.17093678 0.04074518 -0.33434349 0.041218549 -0.13094679 -0.14143947 0.5017091 0.041475948
boxes 0.040487885 -0.17901964 -0.1514122 -0.13210471 -0.49697268 0.42946076 0.32138559 0.20206422 -0.011224807 -0.4372161 -0.0014221419 -0.14220589 -0.18247427 0.51925302 0.053966131
dynamic 0.054640692 -0.16754103 -0.14426039 -0.15073113 -0.39669448 0.37941495 0.27015838 0.15085094 0.028146377 -0.35378373 -0.012506546 -0.14481862 -0.12516437 0.43983203 0.011051035
gridlines 0.050465647 -0.071958177 -0.085019447 -0.088483341 -0.27363533 0.24281181 0.2034018 0.11724797 0.040189758 -0.22422595 -0.010268781 -0.092406206 -0.10979616 0.35517964 0.056468464
borders 0.036766283 -0.10628779 -0.085658975 -0.12090892 -0.39959005 0.32970053 0.2729826 0.16482916 0.029092509 -0.34288853 0.0011101965 -0.091190629 -0.14771718 0.46828982 0.045659442
unit 0.044203877 -0.17814651 -0.12154078 -0.1642801 -0.45347375 0.36845499 0.30952948 0.19667327 -0.0045092073 -0.37902132 -0.0040820916 -0.13727106 -0.15889683 0.50596029 0.046398342
levels 0.06134475 -0.16228317 -0.16409221 -0.16627803 -0.49951416 0.46381518 0.3540816 0.21067424 -0.009937319 -0.4339332 0.0097981989 -0.19762698 -0.17369328 0.60042232 0.026966877
effect 0.035470508 -0.19097845 -0.15632321 -0.20018549 -0.51640689 0.4690752 0.32400811 0.17151897 0.0027365079 -0.46903729 0.007672939 -0.15432535 -0.20922998 0.64354962 0.06791579
decision 0.010234988 -0.23209034 -0.15770818 -0.22224267 -0.53643107 0.46965498 0.32562169 0.18924648 -0.0083939759 -0.46890464 0.024099298 -0.22753572 -0.21864183 0.61396921 0.078396685
xlabel 0.060920972 -0.18270622 -0.17104207 -0.1452949 -0.45416993 0.39154944 0.28919387 0.19820175 0.041446257 -0.41298729 0.031912815 -0.16858064 -0.18004489 0.50845444 0.028225038
source 0.051354896 -0.23207667 -0.18032783 -0.22992666 -0.61076325 0.48843178 0.3822225 0.2147218 0.037927859 -0.47590932 0.0082620922 -0.19902363 -0.21056896 0.70300215 0.068072043
generate 0.048917789 -0.14677061 -0.13229412 -0.10903076 -0.4140853 0.32734779 0.28984624 0.16430183 0.020788318 -0.36229777 0.0072978223 -0.17157395 -0.18844259 0.46924266 0.046349872
key 0.029819572 -0.11897434 -0.13902891 -0.10779939 -0.4077636 0.37123895 0.28735834 0.18822379 0.0068115587 -0.33993208 0.0062127453 -0.17674465 -0.16257639 0.50869137 0.021367135
cluster 0.059280388 -0.15097822 -0.12528428 -0.15822235 -0.47353798 0.44223505 0.36236888 0.17061527 0.022052191 -0.42045835 0.044200879 -0.16862506 -0.17244804 0.56117791 0.028667565
speed 0.027169367 -0.15208638 -0.084754482 -0.18901211 -0.4008927 0.37021855 0.25855106 0.16097897 0.012949352 -0.3286266 0.0054929405 -0.14836925 -0.17573749 0.52104956 0.076554164
message 0.059949238 -0.16827951 -0.11706729 -0.20039497 -0.46749401 0.45463428 0.30836067 0.15985976 -0.008249403 -0.45435819 0.0072404309 -0.19843298 -0.21416274 0.59468621 0.054579355
confusion 0.060174774 -0.13233869 -0.10891311 -0.14159539 -0.41869852 0.37582129 0.32125705 0.17181827 0.019567177 -0.42617378 -0.0010919807 -0.13523379 -0.18192895 0.55424523 0.066226654
category 0.02390065 -0.13074207 -0.14839607 -0.10556782 -0.43794411 0.34806046 0.26580852 0.18369402 0.034379877 -0.36170667 0.0022098124 -0.12869059 -0.1797197 0.46301877 0.050545365
prevent 0.034537598 -0.14381087 -0.09032315 -0.16291136 -0.41154 0.34276742 0.30292752 0.17201172 0.018480727 -0.34521028 -0.00014898297 -0.11104336 -0.15850233 0.44256648 0.052481126
terminal 0.067861021 -0.1708843 -0.080560081 -0.16382477 -0.3965815 0.30472723 0.25447056 0.16176359 0.030853398 -0.34205294 0.052719105 -0.17742167 -0.14354265 0.49450034 0.053878359
confidence 0.095261589 -0.18854724 -0.20059268 -0.23439154 -0.558375 0.53209186 0.36355203 0.23721534 0.054210071 -0.46311975 0.0042362353 -0.23044276 -0.20245796 0.68925649 0.055562224
embed 0.038540136 -0.095585249 -0.073455423 -0.14894535 -0.36623463 0.3016828 0.19829163 0.1367086 0.032471843 -0.29262447 0.043338504 -0.15926544 -0.12473909 0.4150131 0.062742479
dict 0.046383582 -0.17026225 -0.13699076 -0.17279367 -0.46851435 0.42468548 0.29155412 0.17161685 0.04218014 -0.39212224 -0.021162115 -0.17785843 -0.20499726 0.55917591 0.048753329
view 0.024080398 -0.17520823 -0.1665837 -0.19939558 -0.48750594 0.40761614 0.29384339 0.18145296 0.0015740667 -0.42717052 -0.010951927 -0.19963555 -0.23461878 0.60820681 0.055979185
plot_date 0.030008772 -0.11124076 -0.10749167 -0.17524272 -0.43824822 0.3617456 0.30858091 0.14550644 -0.016069323 -0.34785151 0.042590246 -0.14991796 -0.17697996 0.48816663 0.043672811
mask 0.011120395 -0.15983301 -0.13689135 -0.13807294 -0.44948491 0.35876548 0.29375717 0.16001669 0.015563614 -0.39654452 0.0072069569 -0.12398665 -0.15720636 0.52946049 0.053181469
combine 0.042921349 -0.062602438 -0.10928875 -0.10010442 -0.2760599 0.22224227 0.15407346 0.075691581 0.034994334 -0.24612717 0.0002207621 -0.071938075 -0.09251418 0.30693018 0.02809581
c 0.051718574 -0.17008573 -0.13936739 -0.16914736 -0.54072338 0.49920565 0.35683084 0.18601212 0.0020420349 -0.49582613 -0.012705098 -0.19439764 -0.23636045 0.62550342 0.063711092
excel 0.078051284 -0.14253408 -0.16980258 -0.12050474 -0.43253806 0.37869763 0.29083014 0.17479073 0.025344498 -0.32910338 0.053972103 -0.15928885 -0.19994743 0.487308 0.046590149
zero 0.074383378 -0.17038007 -0.15912305 -0.1524592 -0.49741048 0.42940387 0.30592161 0.19433931 -0.011964212 -0.41103786 0.010961662 -0.13586569 -0.2052547 0.57628757 0.014214745
categories 0.063096136 -0.12094186 -0.12395857 -0.12296332 -0.42546499 0.35347894 0.30636466 0.14646129 0.014322271 -0.35060418 -0.01604698 -0.13549522 -0.1576961 0.50807303 0.064761646
days 0.028543154 -0.14413473 -0.1874433 -0.17515665 -0.5066542 0.43088204 0.34945944 0.17047027 0.015386228 -0.38566068 0.020043222 -0.15752366 -0.21952888 0.52102405 0.058792897
signal 0.01410321 -0.15333307 -0.14655684 -0.15804689 -0.49247655 0.38984203 0.31128699 0.15156583 -0.009745176 -0.39205351 0.0016221041 -0.19441988 -0.19322611 0.5763647 0.049313664
how 0.056640193 -0.20523734 -0.13915461 -0.19459473 -0.51666325 0.44268036 0.35083294 0.18823996 0.03768374 -0.44369954 0.0066977385 -0.19947386 -0.19563095 0.55616152 0.032295387
power 0.086997062 -0.18663558 -0.14020622 -0.16420677 -0.5832473 0.5130282 0.3862206 0.24292056 -0.013386832 -0.49322218 0.040508896 -0.17480804 -0.25209615 0.67118526 0.066357136
tight_layout 0.055944663 -0.18319394 -0.11683255 -0.18968295 -0.41108102 0.39994138 0.30036354 0.12845489 0.012889571 -0.38733935 0.0014754089 -0.1295169 -0.19471899 0.48609698 0.01259675
xticklabels 0.030119024 -0.13584623 -0.10828713 -0.18173024 -0.44087872 0.36625001 0.32339162 0.14957783 0.019105973 -0.35213393 0.015397829 -0.17827637 -0.19885093 0.5276075 0.04345917
settings 0.050427981 -0.19203645 -0.1291388 -0.20147298 -0.45866638 0.41012323 0.31109726 0.17498113 0.0037780462 -0.43142459 -0.0021203284 -0.18697841 -0.16975287 0.55918241 0.067398675
correlation 0.021453369 -0.14518605 -0.16407253 -0.18265545 -0.45413929 0.35075924 0.31371346 0.1893812 0.019478954 -0.38794607 0.036853272 -0.15871267 -0.19734196 0.53121495 0.048487138
quality 0.017090963 -0.1288189 -0.14906988 -0.12822022 -0.39366066 0.35899767 0.22631411 0.14147395 -0.016400844 -0.30776307 -0.0044199512 -0.12038231 -0.15641536 0.43524402 0.022570509
classes 0.037737228 -0.20599307 -0.16312276 -0.1870424 -0.51924384 0.45107162 0.30924422 0.17171185 0.030620899 -0.40680116 0.029775059 -0.1441188 -0.20684391 0.59933573 0.068733767
flask 0.03613716 -0.20116915 -0.16124797 -0.17624252 -0.45100796 0.44584188 0.29502034 0.22502336 0.016266942 -0.43734249 -0.011927499 -0.16158324 -0.19843945 0.59408933 0.063445143
integers 0.046726711 -0.11564609 -0.10444634 -0.13570718 -0.39524165 0.35755202 0.24102226 0.12112854 0.025334466 -0.31278896 0.029550498 -0.13742438 -0.12409322 0.41694418 -0.0039439476
help 0.017638057 -0.15538272 -0.1545106 -0.17999539 -0.52528852 0.42329505 0.32065907 0.21674688 -0.0031086584 -0.44219568 0.020102642 -0.20019634 -0.24138899 0.59358692 0.030889649
dll 0.074968092 -0.2740401 -0.16396426 -0.2961967 -0.53170383 0.42484072 0.3012203 0.19800735 0.0073534967 -0.47303021 -0.010129327 -0.2780779 -0.26900738 0.71108645 0.061056074
horizontal 0.026295979 -0.1411508 -0.12913507 -0.11032628 -0.32570204 0.28659216 0.20859814 0.1100035 0.021237865 -0.31186742 -0.013160557 -0.10126314 -0.11200101 0.41141 0.025532542
overlap 0.016484419 -0.16249132 -0.14214335 -0.11586215 -0.42199972 0.34528682 0.27528614 0.12009852 -0.013036474 -0.32057631 0.0093925158 -0.11528777 -0.14611655 0.45882878 0.06651552
ellipse 0.025492214 -0.14116894 -0.075681284 -0.14229831 -0.32542413 0.25661469 0.24600711 0.13838609 0.041511856 -0.25645712 0.034038089 -0.14155893 -0.16398893 0.41305685 0.036550321
symbols -0.001599888 -0.1025204 -0.079549886 -0.13074449 -0.3726334 0.34155455 0.24234481 0.11390231 0.014616827 -0.30327898 0.013068791 -0.14559945 -0.11363574 0.42973366 0.0048074028
unicode 0.059505861 -0.18834154 -0.11830381 -0.1549302 -0.48218793 0.40848923 0.30447742 0.20079406 0.013012022 -0.42768347 0.019596178 -0.18401971 -0.17648143 0.58358955 0.030926306
intensity 0.061988071 -0.12188824 -0.098398924 -0.098594815 -0.38127473 0.36257651 0.27231821 0.17137265 0.014370193 -0.35965073 0.016241821 -0.11279225 -0.17505626 0.46939483 0.01862701
pivot 0.097792715 -0.10933091 -0.10612039 -0.10751686 -0.46183383 0.29665086 0.25064984 0.15231754 0.022261871 -0.36469325 0.037683483 -0.093290895 -0.18896548 0.48501354 -0.0037684941
month 0.075111195 -0.14808486 -0.16079512 -0.17884246 -0.50780529 0.45459941 0.38176316 0.20491314 0.027553707 -0.43472478 0.0077770916 -0.19623618 -0.19878592 0.59309632 0.038275465
spaces 0.038634911 -0.13088869 -0.077703133 -0.13325968 -0.32079673 0.29141471 0.2487701 0.15791012 0.03382542 -0.28648379 0.02002956 -0.097428702 -0.11659 0.40455231 0.0088318214
gnuplot 0.080074705 -0.11540954 -0.15247442 -0.1229288 -0.42789218 0.35552973 0.24691264 0.15867259 0.0099870693 -0.37572095 -0.013203813 -0.17236134 -0.18064886 0.49045238 0.025100047
facecolor 0.051547982 -0.12071563 -0.11807287 -0.17792828 -0.45010248 0.40589374 0.28770292 0.13544235 -0.0060712569 -0.35062754 -0.016669396 -0.14108077 -0.2018514 0.52815205 0.056272063
tex 0.023543354 -0.15784383 -0.12660395 -0.15176612 -0.47073105 0.41277555 0.33243445 0.19252849 0.025718411 -0.44270852 0.012651958 -0.1545884 -0.16898382 0.53226995 0.068537176
outliers 0.012099403 -0.1640022 -0.14588065 -0.16909668 -0.44048199 0.37934995 0.27911586 0.14367822 0.0042375643 -0.40058655 -0.019924002 -0.1736939 -0.19162397 0.4830814 0.014668729
timestamps 0.035983682 -0.087849289 -0.14116907 -0.11352408 -0.34111291 0.28805721 0.21677455 0.1561358 -0.0079102991 -0.28920308 -0.00081401778 -0.09743306 -0.12355834 0.41531014 0.0393066
equations 0.059602816 -0.14611171 -0.12415831 -0.14170557 -0.45128077 0.39711621 0.28324762 0.14654598 -0.0094302557 -0.38008478 0.039129745 -0.16039227 -0.19807728 0.55543703 0.081579983
pyside 0.040215198 -0.20473629 -0.12381259 -0.19881329 -0.48926517 0.41788125 0.31185341 0.18282649 -0.0099265035 -0.44412991 -0.0041323039 -0.16100119 -0.19484238 0.57077664 0.024300162
interactive 0.035296716 -0.18290631 -0.075708903 -0.2005834 -0.35194761 0.33265433 0.24499415 0.12537862 -0.007039133 -0.31768262 0.0067691831 -0.11068301 -0.14571121 0.46207917 0.055434473
web 0.058869921 -0.14841126 -0.16670133 -0.19456221 -0.54354787 0.43955284 0.31919676 0.18466549 -0.0089656478 -0.42921847 0.026703537 -0.22966221 -0.23907141 0.64913613 0.091447897
does 0.048770715 -0.15937366 -0.14776865 -0.11733992 -0.45982629 0.36238244 0.30494985 0.19718587 0.051488042 -0.38727283 0.023226686 -0.13624549 -0.14999132 0.5198735 0.030213797
network 0.039388381 -0.11500164 -0.081409201 -0.1345191 -0.40006158 0.314284 0.21246076 0.12420582 -0.015373639 -0.31705835 0.0024692169 -0.11944379 -0.18614218 0.43375856 0.057154104
meshgrid 0.055050526 -0.096507996 -0.077959456 -0.083034009 -0.31940925 0.32904881 0.23472874 0.12142535 0.035393912 -0.30154338 0.016150404 -0.1072269 -0.10935615 0.39964768 0.012612715
boundary 0.052881077 -0.18240908 -0.12138147 -0.20903367 -0.50010252 0.44559172 0.30698606 0.16377869 0.0060163611 -0.40783417 0.033494405 -0.17556262 -0.2395215 0.56549346 0.062067311
kernel 0.06442 -0.17293227 -0.11591857 -0.17488903 -0.43740523 0.37250021 0.30979836 0.17923723 0.04160177 -0.35708454 0.056804061 -0.16501831 -0.16633849 0.58412212 0.042677201
rectangles 0.063124791 -0.11057866 -0.090606324 -0.13402168 -0.37512407 0.33117935 0.25618416 0.11707842 -0.0048856894 -0.32747304 -0.0093307933 -0.13577402 -0.16739024 0.44540769 0.068282284
behaviour 0.047805779 -0.16327612 -0.14289124 -0.15094143 -0.51291513 0.41575995 0.34734771 0.19963226 0.020721246 -0.42371139 -0.00512884 -0.14683244 -0.19271764 0.60115004 0.060244836
fontsize 0.06433513 -0.1099435 -0.11321608 -0.14253479 -0.34930962 0.27034396 0.25423849 0.11126988 0.0075580161 -0.2809234 -0.018179351 -0.094532035 -0.13604429 0.37152392 0.042146284
rcparams 0.075160131 -0.12640296 -0.10338769 -0.14955911 -0.36421853 0.32791623 0.25267574 0.16345076 0.0054781954 -0.36670029 0.034673385 -0.11677676 -0.14027324 0.4565171 0.05623484
'module -0.0039458233 -0.19776094 -0.13438502 -0.21525289 -0.44389883 0.44459432 0.27671021 0.1566463 0.026745025 -0.4032602 -0.032104582 -0.20633353 -0.23556617 0.58189756 0.064576484
option 0.050696157 -0.18938467 -0.13574991 -0.19691367 -0.46287727 0.43171749 0.34196949 0.16351923 -0.018585263 -0.43321764 -0.0043667713 -0.13761111 -0.19821927 0.52557534 0.081033744
segmentation 0.080097437 -0.19793591 -0.13326509 -0.16914757 -0.47187093 0.42872569 0.33657873 0.1944337 -0.0098353419 -0.46202931 -0.018061094 -0.17171599 -0.23251469 0.59273261 0.029357519
yticks 0.050532885 -0.15283398 -0.13578309 -0.16924565 -0.39815921 0.33900881 0.28160056 0.15770012 0.014474057 -0.35953647 0.030684279 -0.128656 -0.15137577 0.50155163 0.033823024
corner 0.04540538 -0.14689222 -0.086769529 -0.10199516 -0.37628406 0.34459567 0.2464776 0.11431475 0.013389626 -0.29675832 -0.0058318893 -0.12244827 -0.17528819 0.3851631 0.0063697393
extent 0.027093483 -0.21224584 -0.17268652 -0.16890259 -0.52819973 0.47909325 0.35280886 0.20409137 -0.0017925596 -0.44454339 -0.02514636 -0.18845792 -0.21230933 0.61725342 0.046998255
form 0.034061622 -0.13579863 -0.099683367 -0.16665857 -0.43425575 0.392315 0.3237907 0.18549764 0.043542735 -0.37115428 0.0032583836 -0.17002487 -0.19560122 0.49537763 0.014892867
factorplot 0.03006041 -0.059685264 -0.09636087 -0.1068599 -0.30061057 0.24801251 0.22042115 0.084378079 0.039224498 -0.26770902 0.012490328 -0.11110197 -0.099350847 0.3779662 0.0029658019
blank 0.037762098 -0.13473812 -0.083835915 -0.11939552 -0.30752391 0.27067164 0.21566813 0.14010242 0.017377546 -0.32616916 0.040580261 -0.13293426 -0.14893062 0.39450085 0.063095123
linewidth 0.059897531 -0.094644882 -0.11583471 -0.080314934 -0.33222044 0.29589435 0.20802994 0.16025566 0.020187322 -0.31025076 0.010234456 -0.10071021 -0.1376141 0.41787973 -0.0014344703
angle 0.034180861 -0.1562475 -0.12518294 -0.1829143 -0.42264774 0.3891665 0.28569296 0.20314768 0.037233002 -0.42542753 0.015212595 -0.17880301 -0.16680975 0.55985653 0.02287782
adjust 0.066688038 -0.14007342 -0.128324 -0.13059871 -0.39826614 0.34190163 0.23639373 0.17635261 0.014802762 -0.32596436 -0.0044095358 -0.16011423 -0.12155648 0.44751176 0.057247072
reference 0.044848464 -0.10218369 -0.10343736 -0.11405199 -0.39359656 0.3144421 0.21690619 0.10886171 -0.012862598 -0.33598197 0.016262271 -0.11160972 -0.13756759 0.41120809 0.063475735
distributions 0.06121783 -0.15651475 -0.11579375 -0.15543288 -0.42036813 0.39707193 0.2967234 0.17947446 0.044382803 -0.38498157 -0.00092753093 -0.14292492 -0.18671094 0.51126868 0.056970462
